{"learner":{"attributes":{"scikit_learn":"{\"_estimator_type\": \"classifier\"}"},"feature_names":["view_type","angle","part","damage","airbag"],"feature_types":["int","int","int","int","int"],"gradient_booster":{"model":{"gbtree_model_param":{"num_parallel_tree":"1","num_trees":"800"},"iteration_indptr":[0,4,8,12,16,20,24,28,32,36,40,44,48,52,56,60,64,68,72,76,80,84,88,92,96,100,104,108,112,116,120,124,128,132,136,140,144,148,152,156,160,164,168,172,176,180,184,188,192,196,200,204,208,212,216,220,224,228,232,236,240,244,248,252,256,260,264,268,272,276,280,284,288,292,296,300,304,308,312,316,320,324,328,332,336,340,344,348,352,356,360,364,368,372,376,380,384,388,392,396,400,404,408,412,416,420,424,428,432,436,440,444,448,452,456,460,464,468,472,476,480,484,488,492,496,500,504,508,512,516,520,524,528,532,536,540,544,548,552,556,560,564,568,572,576,580,584,588,592,596,600,604,608,612,616,620,624,628,632,636,640,644,648,652,656,660,664,668,672,676,680,684,688,692,696,700,704,708,712,716,720,724,728,732,736,740,744,748,752,756,760,764,768,772,776,780,784,788,792,796,800],"tree_info":[0,1,2,3,0,1,2,3,0,1,2,3,0,1,2,3,0,1,2,3,0,1,2,3,0,1,2,3,0,1,2,3,0,1,2,3,0,1,2,3,0,1,2,3,0,1,2,3,0,1,2,3,0,1,2,3,0,1,2,3,0,1,2,3,0,1,2,3,0,1,2,3,0,1,2,3,0,1,2,3,0,1,2,3,0,1,2,3,0,1,2,3,0,1,2,3,0,1,2,3,0,1,2,3,0,1,2,3,0,1,2,3,0,1,2,3,0,1,2,3,0,1,2,3,0,1,2,3,0,1,2,3,0,1,2,3,0,1,2,3,0,1,2,3,0,1,2,3,0,1,2,3,0,1,2,3,0,1,2,3,0,1,2,3,0,1,2,3,0,1,2,3,0,1,2,3,0,1,2,3,0,1,2,3,0,1,2,3,0,1,2,3,0,1,2,3,0,1,2,3,0,1,2,3,0,1,2,3,0,1,2,3,0,1,2,3,0,1,2,3,0,1,2,3,0,1,2,3,0,1,2,3,0,1,2,3,0,1,2,3,0,1,2,3,0,1,2,3,0,1,2,3,0,1,2,3,0,1,2,3,0,1,2,3,0,1,2,3,0,1,2,3,0,1,2,3,0,1,2,3,0,1,2,3,0,1,2,3,0,1,2,3,0,1,2,3,0,1,2,3,0,1,2,3,0,1,2,3,0,1,2,3,0,1,2,3,0,1,2,3,0,1,2,3,0,1,2,3,0,1,2,3,0,1,2,3,0,1,2,3,0,1,2,3,0,1,2,3,0,1,2,3,0,1,2,3,0,1,2,3,0,1,2,3,0,1,2,3,0,1,2,3,0,1,2,3,0,1,2,3,0,1,2,3,0,1,2,3,0,1,2,3,0,1,2,3,0,1,2,3,0,1,2,3,0,1,2,3,0,1,2,3,0,1,2,3,0,1,2,3,0,1,2,3,0,1,2,3,0,1,2,3,0,1,2,3,0,1,2,3,0,1,2,3,0,1,2,3,0,1,2,3,0,1,2,3,0,1,2,3,0,1,2,3,0,1,2,3,0,1,2,3,0,1,2,3,0,1,2,3,0,1,2,3,0,1,2,3,0,1,2,3,0,1,2,3,0,1,2,3,0,1,2,3,0,1,2,3,0,1,2,3,0,1,2,3,0,1,2,3,0,1,2,3,0,1,2,3,0,1,2,3,0,1,2,3,0,1,2,3,0,1,2,3,0,1,2,3,0,1,2,3,0,1,2,3,0,1,2,3,0,1,2,3,0,1,2,3,0,1,2,3,0,1,2,3,0,1,2,3,0,1,2,3,0,1,2,3,0,1,2,3,0,1,2,3,0,1,2,3,0,1,2,3,0,1,2,3,0,1,2,3,0,1,2,3,0,1,2,3,0,1,2,3,0,1,2,3,0,1,2,3,0,1,2,3,0,1,2,3,0,1,2,3,0,1,2,3,0,1,2,3,0,1,2,3,0,1,2,3,0,1,2,3,0,1,2,3,0,1,2,3,0,1,2,3,0,1,2,3,0,1,2,3,0,1,2,3,0,1,2,3,0,1,2,3,0,1,2,3,0,1,2,3,0,1,2,3,0,1,2,3,0,1,2,3,0,1,2,3,0,1,2,3,0,1,2,3,0,1,2,3,0,1,2,3,0,1,2,3,0,1,2,3,0,1,2,3,0,1,2,3,0,1,2,3,0,1,2,3,0,1,2,3,0,1,2,3,0,1,2,3,0,1,2,3,0,1,2,3,0,1,2,3,0,1,2,3,0,1,2,3,0,1,2,3,0,1,2,3],"trees":[{"base_weights":[-2.9587036E-1,-6.627566E-2,6.0682225E-1,1.830986E-1,-6.476869E-2],"categories":[],"categories_nodes":[],"categories_segments":[],"categories_sizes":[],"default_left":[0,0,0,0,0],"id":0,"left_children":[1,-1,3,-1,-1],"loss_changes":[7.959691E1,0E0,1.0811072E2,0E0,0E0],"parents":[2147483647,0,0,2,2],"right_children":[2,-1,4,-1,-1],"split_conditions":[5E0,-6.627566E-2,6E0,1.830986E-1,-6.476869E-2],"split_indices":[3,0,3,0,0],"split_type":[0,0,0,0,0],"sum_hessian":[2.38125E2,1.695E2,6.8625E1,3.45E1,3.4125E1],"tree_param":{"num_deleted":"0","num_feature":"5","num_nodes":"5","size_leaf_vector":"1"}},{"base_weights":[6.7448056E-1,-6.4705886E-2,8.9398634E-1,1.7089084E0,9.7087376E-2,-6.0674157E-2,1.9776537E-1,-6.571936E-2,1.6728624E0,-5.1428575E-2,1.9338843E-1],"categories":[],"categories_nodes":[],"categories_segments":[],"categories_sizes":[],"default_left":[0,0,0,0,0,0,0,0,0,0,0],"id":1,"left_children":[1,-1,3,5,7,-1,-1,-1,9,-1,-1],"loss_changes":[6.863978E1,0E0,1.307715E2,6.3198547E1,1.2352284E2,0E0,0E0,0E0,2.0190865E1,0E0,0E0],"parents":[2147483647,0,0,2,2,3,3,4,4,8,8],"right_children":[2,-1,4,6,8,-1,-1,-1,10,-1,-1],"split_conditions":[1E0,-6.4705886E-2,4E0,1E0,6E0,-6.0674157E-2,1.9776537E-1,-6.571936E-2,1E0,-5.1428575E-2,1.9338843E-1],"split_indices":[3,0,3,4,3,0,0,0,4,0,0],"split_type":[0,0,0,0,0,0,0,0,0,0,0],"sum_hessian":[2.33625E2,3.3E1,2.00625E2,9.8625E1,1.02E2,1.0125E1,8.85E1,6.9375E1,3.2625E1,3.375E0,2.925E1],"tree_param":{"num_deleted":"0","num_feature":"5","num_nodes":"11","size_leaf_vector":"1"}},{"base_weights":[-1.4450262E-1,1.9377433E-1,-4.6598434E-1,1.2941177E0,-6.6310875E-2,1.8139535E-1,6.956522E-1,-5.531915E-2,1.6981132E-1],"categories":[],"categories_nodes":[],"categories_segments":[],"categories_sizes":[],"default_left":[0,0,0,0,0,0,0,0,0],"id":2,"left_children":[1,-1,3,5,-1,-1,7,-1,-1],"loss_changes":[1.6072316E2,0E0,7.289551E1,5.3490753E0,0E0,0E0,1.5336428E1,0E0,0E0],"parents":[2147483647,0,0,2,2,3,3,6,6],"right_children":[2,-1,4,6,-1,-1,8,-1,-1],"split_conditions":[1E0,1.9377433E-1,1E0,4E0,-6.6310875E-2,1.8139535E-1,5E0,-5.531915E-2,1.6981132E-1],"split_indices":[3,0,4,3,0,0,3,0,0],"split_type":[0,0,0,0,0,0,0,0,0],"sum_hessian":[2.3775E2,3.1125E1,2.06625E2,2.025E1,1.86375E2,9.75E0,1.05E1,4.875E0,5.625E0],"tree_param":{"num_deleted":"0","num_feature":"5","num_nodes":"9","size_leaf_vector":"1"}},{"base_weights":[-2.6476577E-1,-6.617916E-2,2.3234624E-1,1.9470198E-1,-6.575342E-2],"categories":[],"categories_nodes":[],"categories_segments":[],"categories_sizes":[],"default_left":[0,0,0,0,0],"id":3,"left_children":[1,-1,3,-1,-1],"loss_changes":[4.8607193E1,0E0,1.6874277E2,0E0,0E0],"parents":[2147483647,0,0,2,2],"right_children":[2,-1,4,-1,-1],"split_conditions":[4E0,-6.617916E-2,5E0,1.9470198E-1,-6.575342E-2],"split_indices":[3,0,3,0,0],"split_type":[0,0,0,0,0],"sum_hessian":[2.445E2,1.3575E2,1.0875E2,3.675E1,7.2E1],"tree_param":{"num_deleted":"0","num_feature":"5","num_nodes":"5","size_leaf_vector":"1"}},{"base_weights":[-2.681697E-1,-6.292837E-2,-2.2447072E-1,-7.376594E-2,-2.6171252E-1,1.285865E-1,-2.7141678E-1,-2.9967904E-1,1.2650652E-2,-8.0431186E-2,3.2100132E-1,-4.1794438E-2,-1.1408037E-1,-1.9700189E-1,-3.7658378E-1,-9.474081E-2,3.349054E-1,-4.654957E-2,8.055183E-2,1.632455E-3,5.1870085E-2,3.6940947E-2,-2.5040483E-1,-8.373904E-2,-3.1915635E-1,-3.4086573E-1,-5.9029233E-2,-1.9225399E-1,1.20329E-1,5.681642E-1,-3.3679023E-2,2.4159027E-2,1.6581964E-4,3.6668003E-2,-2.3664167E-2,-1.4436282E-2,1.6059775E-2,-4.825322E-2,6.5621655E-3,1.1568009E-2,-1.8150615E-2,-3.7996076E-2,9.929619E-3,-3.9292477E-2,-2.7139727E-2,1.1034471E-2,-2.3388978E-2,5.5046994E-2,-2.3670977E-2,6.888699E-2,1.1005297E-2],"categories":[],"categories_nodes":[],"categories_segments":[],"categories_sizes":[],"default_left":[0,0,0,0,0,0,0,0,0,0,0,0,0,0,0,0,0,0,0,0,0,0,0,0,0,0,0,0,0,0,0,0,0,0,0,0,0,0,0,0,0,0,0,0,0,0,0,0,0,0,0],"id":4,"left_children":[1,-1,3,5,7,9,11,13,15,17,19,-1,21,23,25,27,29,-1,31,33,-1,35,37,39,41,43,-1,45,47,49,-1,-1,-1,-1,-1,-1,-1,-1,-1,-1,-1,-1,-1,-1,-1,-1,-1,-1,-1,-1,-1],"loss_changes":[3.5694218E0,0E0,1.1667137E0,1.7652951E0,1.764739E0,9.129025E-1,4.643134E-1,1.0987549E0,7.7610904E-1,7.424294E-1,7.3692703E-1,0E0,2.5804657E-1,8.823986E-1,4.387102E-1,3.778239E-1,1.0682559E0,0E0,1.1231476E-1,5.626334E-1,0E0,1.7125784E-1,5.070195E-1,7.1217656E-1,8.330505E-1,1.6168308E-1,0E0,1.7726535E-1,1.0350306E0,1.7448008E-1,0E0,0E0,0E0,0E0,0E0,0E0,0E0,0E0,0E0,0E0,0E0,0E0,0E0,0E0,0E0,0E0,0E0,0E0,0E0,0E0,0E0],"parents":[2147483647,0,0,2,2,3,3,4,4,5,5,6,6,7,7,8,8,9,9,10,10,12,12,13,13,14,14,15,15,16,16,18,18,19,19,21,21,22,22,23,23,24,24,25,25,27,27,28,28,29,29],"right_children":[2,-1,4,6,8,10,12,14,16,18,20,-1,22,24,26,28,30,-1,32,34,-1,36,38,40,42,44,-1,46,48,50,-1,-1,-1,-1,-1,-1,-1,-1,-1,-1,-1,-1,-1,-1,-1,-1,-1,-1,-1,-1,-1],"split_conditions":[1E0,-6.292837E-2,2E0,4E0,7E0,1E0,6E0,3E0,9E0,1E0,2E0,-4.1794438E-2,7E0,1E0,1E1,1E0,1E0,-4.654957E-2,2E0,1E0,5.1870085E-2,1E0,1E0,5E0,1E1,6E0,-5.9029233E-2,3E0,5E0,1E1,-3.3679023E-2,2.4159027E-2,1.6581964E-4,3.6668003E-2,-2.3664167E-2,-1.4436282E-2,1.6059775E-2,-4.825322E-2,6.5621655E-3,1.1568009E-2,-1.8150615E-2,-3.7996076E-2,9.929619E-3,-3.9292477E-2,-2.7139727E-2,1.1034471E-2,-2.3388978E-2,5.5046994E-2,-2.3670977E-2,6.888699E-2,1.1005297E-2],"split_indices":[4,0,2,1,1,2,1,1,2,1,1,0,1,0,2,0,0,0,1,1,0,2,0,2,2,2,0,2,2,2,0,0,0,0,0,0,0,0,0,0,0,0,0,0,0,0,0,0,0,0,0],"split_type":[0,0,0,0,0,0,0,0,0,0,0,0,0,0,0,0,0,0,0,0,0,0,0,0,0,0,0,0,0,0,0,0,0,0,0,0,0,0,0,0,0,0,0,0,0,0,0,0,0,0,0],"sum_hessian":[2.3414595E2,2.382917E1,2.1031679E2,4.2265125E1,1.6805167E2,2.1056833E1,2.1208294E1,1.4754239E2,2.0509264E1,1.0371931E1,1.0684901E1,1.0123704E1,1.1084591E1,6.4709274E1,8.283312E1,1.5912445E1,4.5968194E0,2.5001342E0,7.871797E0,4.470844E0,6.214058E0,5.604691E0,5.4798994E0,3.445125E1,3.0258028E1,7.319476E1,9.638358E0,1.10214E1,4.8910446E0,3.5263596E0,1.0704598E0,1.9102826E0,5.9615145E0,1.5528705E0,2.917973E0,2.204718E0,3.399973E0,2.8555627E0,2.6243367E0,1.12733555E1,2.3177895E1,2.649944E1,3.7585886E0,3.917856E1,3.40162E1,1.1334591E0,9.887941E0,1.9726897E0,2.9183547E0,2.3923051E0,1.1340544E0],"tree_param":{"num_deleted":"0","num_feature":"5","num_nodes":"51","size_leaf_vector":"1"}},{"base_weights":[6.3026476E-1,-6.330449E-2,8.238237E-1,1.4397231E0,1.3968986E-1,-5.941528E-2,1.6364914E-1,-6.419202E-2,1.4308488E0,-5.0125606E-2,1.6132092E-1],"categories":[],"categories_nodes":[],"categories_segments":[],"categories_sizes":[],"default_left":[0,0,0,0,0,0,0,0,0,0,0],"id":5,"left_children":[1,-1,3,5,7,-1,-1,-1,9,-1,-1],"loss_changes":[6.3156204E1,0E0,9.35726E1,4.779944E1,1.0843948E2,0E0,0E0,0E0,1.5073212E1,0E0,0E0],"parents":[2147483647,0,0,2,2,3,3,4,4,8,8],"right_children":[2,-1,4,6,8,-1,-1,-1,10,-1,-1],"split_conditions":[1E0,-6.330449E-2,4E0,1E0,6E0,-5.941528E-2,1.6364914E-1,-6.419202E-2,1E0,-5.0125606E-2,1.6132092E-1],"split_indices":[3,0,3,4,3,0,0,0,4,0,0],"split_type":[0,0,0,0,0,0,0,0,0,0,0],"sum_hessian":[2.5514859E2,3.359726E1,2.2155133E2,1.160087E2,1.0554263E2,1.005514E1,1.0595356E2,6.605732E1,3.9485317E1,3.2545648E0,3.6230755E1],"tree_param":{"num_deleted":"0","num_feature":"5","num_nodes":"11","size_leaf_vector":"1"}},{"base_weights":[-1.2491375E-1,1.2711231E-1,-2.978516E-1,-1.651692E-1,-3.1428066E-1,-3.5065364E-2,-6.547049E-2,-3.7263688E-1,-2.535198E-1,-1.3144672E-1,2.892589E-2,-4.3524098E-1,-2.4294189E-1,-9.172374E-2,-2.937622E-1,-6.0364082E-2,-2.3723696E-1,2.396175E-2,-7.492047E-2,-3.537902E-1,-5.222835E-1,-1.1181743E-1,-4.999231E-2,3.644636E-2,-1.491197E-1,-3.232925E-1,-1.8144663E-1,-2.014967E-2,2.398683E-2,-3.8336586E-2,3.986015E-5,-3.3696685E-2,4.5710313E-3,-1.719709E-2,-4.481155E-2,-6.1174132E-2,-3.6036268E-2,-2.0641118E-2,3.4928154E-5,-2.636154E-3,-2.3479525E-2,-2.6174162E-2,-4.2652026E-2,-6.3140653E-3,-3.2337334E-2],"categories":[],"categories_nodes":[],"categories_segments":[],"categories_sizes":[],"default_left":[0,0,0,0,0,0,0,0,0,0,0,0,0,0,0,0,0,0,0,0,0,0,0,0,0,0,0,0,0,0,0,0,0,0,0,0,0,0,0,0,0,0,0,0,0],"id":6,"left_children":[1,-1,3,5,7,-1,9,11,13,15,17,19,21,23,25,27,29,-1,31,33,35,37,-1,-1,39,41,43,-1,-1,-1,-1,-1,-1,-1,-1,-1,-1,-1,-1,-1,-1,-1,-1,-1,-1],"loss_changes":[5.7368298E1,0E0,4.0769768E-1,4.456166E-1,5.668373E-1,0E0,1.14097744E-1,6.4942837E-1,5.8834267E-1,6.542371E-2,1.952938E-1,2.509861E-1,1.040666E0,5.85253E-1,1.9083071E-1,3.739234E-1,1.3629422E-1,0E0,2.1110997E-1,5.2065516E-1,1.7952442E-1,2.4236628E-1,0E0,0E0,1.9069645E-1,2.5867796E-1,2.8079838E-1,0E0,0E0,0E0,0E0,0E0,0E0,0E0,0E0,0E0,0E0,0E0,0E0,0E0,0E0,0E0,0E0,0E0,0E0],"parents":[2147483647,0,0,2,2,3,3,4,4,6,6,7,7,8,8,9,9,10,10,11,11,12,12,13,13,14,14,15,15,16,16,18,18,19,19,20,20,21,21,24,24,25,25,26,26],"right_children":[2,-1,4,6,8,-1,10,12,14,16,18,20,22,24,26,28,30,-1,32,34,36,38,-1,-1,40,42,44,-1,-1,-1,-1,-1,-1,-1,-1,-1,-1,-1,-1,-1,-1,-1,-1,-1,-1],"split_conditions":[1E0,1.2711231E-1,1E0,3E0,6E0,-3.5065364E-2,1E0,5E0,7E0,6E0,4E0,4E0,7E0,1E0,1E1,5E0,7E0,2.396175E-2,5E0,2E0,1E0,1E0,-4.999231E-2,3.644636E-2,4E0,9E0,1E0,-2.014967E-2,2.398683E-2,-3.8336586E-2,3.986015E-5,-3.3696685E-2,4.5710313E-3,-1.719709E-2,-4.481155E-2,-6.1174132E-2,-3.6036268E-2,-2.0641118E-2,3.4928154E-5,-2.636154E-3,-2.3479525E-2,-2.6174162E-2,-4.2652026E-2,-6.3140653E-3,-3.2337334E-2],"split_indices":[4,0,2,1,2,0,0,1,2,1,1,2,1,1,2,1,1,0,1,1,0,0,0,0,1,2,0,0,0,0,0,0,0,0,0,0,0,0,0,0,0,0,0,0,0],"split_type":[0,0,0,0,0,0,0,0,0,0,0,0,0,0,0,0,0,0,0,0,0,0,0,0,0,0,0,0,0,0,0,0,0,0,0,0,0,0,0,0,0,0,0,0,0],"sum_hessian":[2.3505292E2,2.5208408E1,2.098445E2,2.4338512E1,1.85506E2,7.628653E0,1.670986E1,9.20072E1,9.349879E1,9.604507E0,7.1053524E0,6.04648E1,3.1542402E1,1.9276438E1,7.422235E1,6.6839952E0,2.9205117E0,1.9142166E0,5.191136E0,3.3852028E1,2.6612774E1,2.1835815E1,9.706588E0,1.5563635E0,1.7720076E1,5.728295E1,1.6939396E1,4.7703996E0,1.9135957E0,1.4287077E0,1.4918041E0,1.0710716E0,4.1200643E0,1.25274935E1,2.1324537E1,1.5352705E1,1.1260069E1,1.1390026E1,1.0445789E1,7.8212585E0,9.898816E0,3.8100567E1,1.9182384E1,1.0026489E1,6.9129066E0],"tree_param":{"num_deleted":"0","num_feature":"5","num_nodes":"45","size_leaf_vector":"1"}},{"base_weights":[-2.8554982E-1,-6.464696E-2,1.5642673E-1,1.6122216E-1,-6.4225264E-2],"categories":[],"categories_nodes":[],"categories_segments":[],"categories_sizes":[],"default_left":[0,0,0,0,0],"id":7,"left_children":[1,-1,3,-1,-1],"loss_changes":[3.726505E1,0E0,1.2374032E2,0E0,0E0],"parents":[2147483647,0,0,2,2],"right_children":[2,-1,4,-1,-1],"split_conditions":[4E0,-6.464696E-2,5E0,1.6122216E-1,-6.4225264E-2],"split_indices":[3,0,3,0,0],"split_type":[0,0,0,0,0],"sum_hessian":[2.3197627E2,1.2744308E2,1.04533195E2,3.6671505E1,6.7861694E1],"tree_param":{"num_deleted":"0","num_feature":"5","num_nodes":"5","size_leaf_vector":"1"}},{"base_weights":[-2.6830253E-1,-6.163582E-2,-2.2608174E-1,-2.547626E-1,-1.3382315E-2,-6.326653E-2,-3.0570465E-1,-3.5523023E-2,1.59964E-1,-2.97896E-1,2.0686933E-1,-2.1989086E-1,-3.6917797E-1,2.9114146E-2,3.9957651E-1,-1.8615454E-1,-3.9642997E-2,4.0835467E-1,-9.92128E-2,-2.4993228E-2,-2.6766542E-1,-4.5801756E-1,-2.9349196E-1,3.1379905E-2,-8.158405E-2,5.2554984E-2,3.1447053E-4,-3.920676E-2,4.0854267E-3,5.214625E-3,5.9603393E-2,-3.0950269E-2,1.544544E-2,-3.879434E-2,2.5617981E-2,-3.0632067E-2,3.5685413E-3,-5.443218E-2,-3.618079E-2,-1.4708734E-2,-4.6922345E-2,-3.7296217E-2,1.1256811E-3],"categories":[],"categories_nodes":[],"categories_segments":[],"categories_sizes":[],"default_left":[0,0,0,0,0,0,0,0,0,0,0,0,0,0,0,0,0,0,0,0,0,0,0,0,0,0,0,0,0,0,0,0,0,0,0,0,0,0,0,0,0,0,0],"id":8,"left_children":[1,-1,3,5,7,9,11,-1,13,15,17,19,21,23,25,27,-1,29,31,33,35,37,39,-1,41,-1,-1,-1,-1,-1,-1,-1,-1,-1,-1,-1,-1,-1,-1,-1,-1,-1,-1],"loss_changes":[3.2095795E0,0E0,1.2460632E0,1.7407551E0,1.5615039E0,2.5444727E0,6.936598E-1,0E0,5.382371E-1,1.6153753E-1,1.1998584E0,5.794997E-1,4.0549183E-1,4.1706872E-1,3.0377525E-1,5.723207E-1,0E0,7.3985827E-1,4.887944E-1,1.4767762E0,6.026156E-1,9.496403E-2,1.1181347E0,0E0,2.6762253E-1,0E0,0E0,0E0,0E0,0E0,0E0,0E0,0E0,0E0,0E0,0E0,0E0,0E0,0E0,0E0,0E0,0E0,0E0],"parents":[2147483647,0,0,2,2,3,3,4,4,5,5,6,6,8,8,9,9,10,10,11,11,12,12,13,13,14,14,15,15,17,17,18,18,19,19,20,20,21,21,22,22,24,24],"right_children":[2,-1,4,6,8,10,12,-1,14,16,18,20,22,24,26,28,-1,30,32,34,36,38,40,-1,42,-1,-1,-1,-1,-1,-1,-1,-1,-1,-1,-1,-1,-1,-1,-1,-1,-1,-1],"split_conditions":[1E0,-6.163582E-2,7E0,2E0,4E0,1E0,3E0,-3.5523023E-2,9E0,4E0,4E0,4E0,6E0,5E0,1E1,1E0,-3.9642997E-2,2E0,6E0,1E0,1E1,5E0,9E0,3.1379905E-2,6E0,5.2554984E-2,3.1447053E-4,-3.920676E-2,4.0854267E-3,5.214625E-3,5.9603393E-2,-3.0950269E-2,1.544544E-2,-3.879434E-2,2.5617981E-2,-3.0632067E-2,3.5685413E-3,-5.443218E-2,-3.618079E-2,-1.4708734E-2,-4.6922345E-2,-3.7296217E-2,1.1256811E-3],"split_indices":[4,0,1,2,2,2,1,0,2,1,1,2,2,2,2,0,0,1,1,1,2,1,2,0,2,0,0,0,0,0,0,0,0,0,0,0,0,0,0,0,0,0,0],"split_type":[0,0,0,0,0,0,0,0,0,0,0,0,0,0,0,0,0,0,0,0,0,0,0,0,0,0,0,0,0,0,0,0,0,0,0,0,0,0,0,0,0,0,0],"sum_hessian":[2.2689285E2,2.3074554E1,2.038183E2,1.7942632E2,2.439198E1,3.817285E1,1.4125346E2,7.8540783E0,1.65379E1,2.0374014E1,1.7798838E1,6.195572E1,7.9297745E1,1.1421983E1,5.1159186E0,1.090104E1,9.472974E0,1.0531867E1,7.266969E0,1.2496999E1,4.945872E1,3.415515E1,4.514259E1,2.684212E0,8.737771E0,3.6351E0,1.4808185E0,5.3348503E0,5.5661893E0,4.075177E0,6.4566903E0,3.852848E0,3.4141212E0,5.2894363E0,7.2075624E0,4.3859962E1,5.598758E0,1.5549194E1,1.8605957E1,2.5628277E1,1.9514315E1,1.382287E0,7.355484E0],"tree_param":{"num_deleted":"0","num_feature":"5","num_nodes":"43","size_leaf_vector":"1"}},{"base_weights":[5.647676E-1,-6.2736735E-2,7.3478764E-1,1.2394613E0,1.4094149E-1,1.4171652E-1,1.0335588E-1,-6.305676E-2,1.2314009E-1],"categories":[],"categories_nodes":[],"categories_segments":[],"categories_sizes":[],"default_left":[0,0,0,0,0,0,0,0,0],"id":9,"left_children":[1,-1,3,5,7,-1,-1,-1,-1],"loss_changes":[5.256196E1,0E0,6.738567E1,2.9895477E0,8.885432E1,0E0,0E0,0E0,0E0],"parents":[2147483647,0,0,2,2,3,3,4,4],"right_children":[2,-1,4,6,8,-1,-1,-1,-1],"split_conditions":[1E0,-6.2736735E-2,4E0,1E0,6E0,1.4171652E-1,1.0335588E-1,-6.305676E-2,1.2314009E-1],"split_indices":[3,0,3,0,3,0,0,0,0],"split_type":[0,0,0,0,0,0,0,0,0],"sum_hessian":[2.5605164E2,3.1623835E1,2.2442778E2,1.2073517E2,1.0369262E2,6.16476E1,5.9087566E1,6.0974438E1,4.271818E1],"tree_param":{"num_deleted":"0","num_feature":"5","num_nodes":"9","size_leaf_vector":"1"}},{"base_weights":[-9.821778E-2,1.5643205E-1,-4.2114726E-1,1.0601667E0,-6.395396E-2,1.3749579E-1,5.757061E-1,-5.4771632E-2,1.312873E-1],"categories":[],"categories_nodes":[],"categories_segments":[],"categories_sizes":[],"default_left":[0,0,0,0,0,0,0,0,0],"id":10,"left_children":[1,-1,3,5,-1,-1,7,-1,-1],"loss_changes":[1.3066614E2,0E0,6.652957E1,3.2544575E0,0E0,0E0,1.07973385E1,0E0,0E0],"parents":[2147483647,0,0,2,2,3,3,6,6],"right_children":[2,-1,4,6,-1,-1,8,-1,-1],"split_conditions":[1E0,1.5643205E-1,1E0,4E0,-6.395396E-2,1.3749579E-1,5E0,-5.4771632E-2,1.312873E-1],"split_indices":[3,0,4,3,0,0,3,0,0],"split_type":[0,0,0,0,0,0,0,0,0],"sum_hessian":[2.4115225E2,3.8597347E1,2.0255492E2,2.5530678E1,1.7702423E2,1.4361073E1,1.1169605E1,4.527229E0,6.642377E0],"tree_param":{"num_deleted":"0","num_feature":"5","num_nodes":"9","size_leaf_vector":"1"}},{"base_weights":[-2.745305E-1,-4.4446582E-1,-2.3324087E-1,-4.7370963E-2,-4.7672626E-2,-8.357838E-2,-2.8139508E-1,-4.0399842E-2,3.4638498E-2,3.771785E-1,-1.6573906E-1,-1.450895E-1,-2.9544836E-1,5.252627E-2,7.808898E-2,-2.1271019E-1,1.5829456E-1,3.3868205E-2,-3.275862E-1,-2.6178116E-1,-3.5984764E-1,-3.20584E-2,2.2563472E-1,-1.1500175E-1,-3.3794114E-1,-1.363899E-2,3.857621E-2,-5.5605765E-2,1.5075132E-1,-3.93567E-1,-1.7225115E-1,-1.754193E-1,-4.3985944E-2,3.021246E-4,3.523572E-2,-2.7078113E-2,2.0329637E-2,-4.4620935E-2,-1.7280104E-2,-5.864342E-4,2.3306428E-2,-2.1549638E-2,-5.9667964E-2,-2.7274514E-2,-5.7241223E-3,-2.6057644E-2,-8.1414245E-3],"categories":[],"categories_nodes":[],"categories_segments":[],"categories_sizes":[],"default_left":[0,0,0,0,0,0,0,0,0,0,0,0,0,0,0,0,0,0,0,0,0,0,0,0,0,0,0,0,0,0,0,0,0,0,0,0,0,0,0,0,0,0,0,0,0,0,0],"id":11,"left_children":[1,3,5,7,-1,9,11,-1,-1,13,15,17,19,21,-1,23,25,-1,27,29,31,-1,33,35,37,-1,-1,-1,39,41,43,45,-1,-1,-1,-1,-1,-1,-1,-1,-1,-1,-1,-1,-1,-1,-1],"loss_changes":[1.4528084E0,5.187645E-1,1.2778339E0,7.4172485E-1,0E0,1.7803683E0,2.1801472E-1,0E0,0E0,8.990511E-1,6.303961E-1,1.4082458E0,1.7139244E-1,3.9835364E-1,0E0,3.8535047E-1,4.237674E-1,0E0,1.305389E0,9.2463493E-1,5.040283E-1,0E0,1.127588E-1,1.0958407E0,1.8534088E-1,0E0,0E0,0E0,5.8086917E-2,1.0739517E0,5.8382714E-1,8.749771E-2,0E0,0E0,0E0,0E0,0E0,0E0,0E0,0E0,0E0,0E0,0E0,0E0,0E0,0E0,0E0],"parents":[2147483647,0,0,1,1,2,2,3,3,5,5,6,6,9,9,10,10,11,11,12,12,13,13,15,15,16,16,18,18,19,19,20,20,22,22,23,23,24,24,28,28,29,29,30,30,31,31],"right_children":[2,4,6,8,-1,10,12,-1,-1,14,16,18,20,22,-1,24,26,-1,28,30,32,-1,34,36,38,-1,-1,-1,40,42,44,46,-1,-1,-1,-1,-1,-1,-1,-1,-1,-1,-1,-1,-1,-1,-1],"split_conditions":[2E0,1E0,2E0,3E0,-4.7672626E-2,1E0,3E0,-4.0399842E-2,3.4638498E-2,6E0,1E1,3E0,6E0,1E0,7.808898E-2,6E0,1E0,3.3868205E-2,6E0,6E0,6E0,-3.20584E-2,4E0,5E0,1E0,-1.363899E-2,3.857621E-2,-5.5605765E-2,1E0,1E0,1E0,7E0,-4.3985944E-2,3.021246E-4,3.523572E-2,-2.7078113E-2,2.0329637E-2,-4.4620935E-2,-1.7280104E-2,-5.864342E-4,2.3306428E-2,-2.1549638E-2,-5.9667964E-2,-2.7274514E-2,-5.7241223E-3,-2.6057644E-2,-8.1414245E-3],"split_indices":[2,4,1,1,0,4,2,0,0,2,2,1,1,1,0,2,0,0,1,2,2,0,2,2,0,0,0,0,0,0,0,1,0,0,0,0,0,0,0,0,0,0,0,0,0,0,0],"split_type":[0,0,0,0,0,0,0,0,0,0,0,0,0,0,0,0,0,0,0,0,0,0,0,0,0,0,0,0,0,0,0,0,0,0,0,0,0,0,0,0,0,0,0,0,0,0,0],"sum_hessian":[2.2082901E2,4.1258236E1,1.7957079E2,3.2854862E0,3.797275E1,4.437856E1,1.3519221E2,1.7103753E0,1.5751109E0,6.1724935E0,3.8206066E1,1.3694154E1,1.2149807E2,4.0476255E0,2.1248677E0,3.3669037E1,4.537027E0,3.51653E0,1.0177623E1,8.311267E1,3.8385395E1,1.0127861E0,3.0348396E0,1.9990358E1,1.3678679E1,2.1509142E0,2.3861127E0,6.7778134E0,3.3998098E0,3.224821E1,5.0864464E1,1.258022E1,2.5805174E1,1.4722966E0,1.562543E0,1.3521862E1,6.468496E0,7.2339764E0,6.444703E0,1.4912277E0,1.9085822E0,1.8281567E1,1.3966643E1,2.641336E1,2.4451101E1,5.6710234E0,6.909197E0],"tree_param":{"num_deleted":"0","num_feature":"5","num_nodes":"47","size_leaf_vector":"1"}},{"base_weights":[-2.9213524E-1,-6.3251525E-2,4.5132312E-1,1.3724874E-1,-6.1553217E-2],"categories":[],"categories_nodes":[],"categories_segments":[],"categories_sizes":[],"default_left":[0,0,0,0,0],"id":12,"left_children":[1,-1,3,-1,-1],"loss_changes":[5.768272E1,0E0,7.142067E1,0E0,0E0],"parents":[2147483647,0,0,2,2],"right_children":[2,-1,4,-1,-1],"split_conditions":[5E0,-6.3251525E-2,6E0,1.3724874E-1,-6.1553217E-2],"split_indices":[3,0,3,0,0],"split_type":[0,0,0,0,0],"sum_hessian":[2.2581429E2,1.5499956E2,7.0814735E1,3.7848442E1,3.2966293E1],"tree_param":{"num_deleted":"0","num_feature":"5","num_nodes":"5","size_leaf_vector":"1"}},{"base_weights":[5.3869265E-1,-6.0959894E-2,6.8079525E-1,1.1266382E0,1.02023594E-1,-5.9598267E-2,1.286125E-1,-6.257176E-2,1.1081907E0,-5.1748265E-2,1.2728547E-1],"categories":[],"categories_nodes":[],"categories_segments":[],"categories_sizes":[],"default_left":[0,0,0,0,0,0,0,0,0,0,0],"id":13,"left_children":[1,-1,3,5,7,-1,-1,-1,9,-1,-1],"loss_changes":[4.2609535E1,0E0,5.9384285E1,3.652275E1,7.496529E1,0E0,0E0,0E0,1.2151478E1,0E0,0E0],"parents":[2147483647,0,0,2,2,3,3,4,4,8,8],"right_children":[2,-1,4,6,8,-1,-1,-1,10,-1,-1],"split_conditions":[1E0,-6.0959894E-2,4E0,1E0,6E0,-5.9598267E-2,1.286125E-1,-6.257176E-2,1E0,-5.1748265E-2,1.2728547E-1],"split_indices":[3,0,3,4,3,0,0,0,4,0,0],"split_type":[0,0,0,0,0,0,0,0,0,0,0],"sum_hessian":[2.575841E2,2.8003752E1,2.2958037E2,1.2914783E2,1.0043254E2,1.0711869E1,1.1843595E2,5.8499268E1,4.1933277E1,3.659691E0,3.8273586E1],"tree_param":{"num_deleted":"0","num_feature":"5","num_nodes":"11","size_leaf_vector":"1"}},{"base_weights":[-9.940802E-2,1.3691537E-1,-3.947973E-1,9.479243E-1,-6.288161E-2,1.2650101E-1,5.309805E-1,-5.558997E-2,1.2328736E-1],"categories":[],"categories_nodes":[],"categories_segments":[],"categories_sizes":[],"default_left":[0,0,0,0,0,0,0,0,0],"id":14,"left_children":[1,-1,3,5,-1,-1,7,-1,-1],"loss_changes":[9.867487E1,0E0,6.0020157E1,3.091856E0,0E0,0E0,1.1381296E1,0E0,0E0],"parents":[2147483647,0,0,2,2,3,3,6,6],"right_children":[2,-1,4,6,-1,-1,8,-1,-1],"split_conditions":[1E0,1.3691537E-1,1E0,4E0,-6.288161E-2,1.2650101E-1,5E0,-5.558997E-2,1.2328736E-1],"split_indices":[3,0,4,3,0,0,3,0,0],"split_type":[0,0,0,0,0,0,0,0,0],"sum_hessian":[2.2522157E2,3.7106625E1,1.8811494E2,2.7467123E1,1.6064783E2,1.4446529E1,1.3020594E1,5.19074E0,7.829853E0],"tree_param":{"num_deleted":"0","num_feature":"5","num_nodes":"9","size_leaf_vector":"1"}},{"base_weights":[-2.521808E-1,-6.2404048E-2,1.5940751E-1,1.3812421E-1,-6.275412E-2],"categories":[],"categories_nodes":[],"categories_segments":[],"categories_sizes":[],"default_left":[0,0,0,0,0],"id":15,"left_children":[1,-1,3,-1,-1],"loss_changes":[3.4261604E1,0E0,1.0349896E2,0E0,0E0],"parents":[2147483647,0,0,2,2],"right_children":[2,-1,4,-1,-1],"split_conditions":[4E0,-6.2404048E-2,5E0,1.3812421E-1,-6.275412E-2],"split_indices":[3,0,3,0,0],"split_type":[0,0,0,0,0],"sum_hessian":[2.2220439E2,1.1646501E2,1.0573938E2,4.1127968E1,6.461141E1],"tree_param":{"num_deleted":"0","num_feature":"5","num_nodes":"5","size_leaf_vector":"1"}},{"base_weights":[-2.4898997E-1,-6.19833E-2,4.9429223E-1,1.2461774E0,-6.0003318E-2,-4.524502E-2,1.3400303E-1],"categories":[],"categories_nodes":[],"categories_segments":[],"categories_sizes":[],"default_left":[0,0,0,0,0,0,0],"id":16,"left_children":[1,-1,3,5,-1,-1,-1],"loss_changes":[5.84731E1,0E0,5.8999794E1,7.348068E0,0E0,0E0,0E0],"parents":[2147483647,0,0,2,2,3,3],"right_children":[2,-1,4,6,-1,-1,-1],"split_conditions":[5E0,-6.19833E-2,6E0,1E0,-6.0003318E-2,-4.524502E-2,1.3400303E-1],"split_indices":[3,0,3,4,0,0,0],"split_type":[0,0,0,0,0,0,0],"sum_hessian":[2.1002345E2,1.4022673E2,6.979672E1,4.1289154E1,2.8507566E1,1.9618077E0,3.9327343E1],"tree_param":{"num_deleted":"0","num_feature":"5","num_nodes":"7","size_leaf_vector":"1"}},{"base_weights":[4.7066596E-1,-5.9619486E-2,5.890428E-1,1.0054462E0,8.786853E-2,-5.813808E-2,1.1488857E-1,-6.139201E-2,1.016556E0,-4.9037963E-2,1.1379496E-1],"categories":[],"categories_nodes":[],"categories_segments":[],"categories_sizes":[],"default_left":[0,0,0,0,0,0,0,0,0,0,0],"id":17,"left_children":[1,-1,3,5,7,-1,-1,-1,9,-1,-1],"loss_changes":[3.2918343E1,0E0,4.8457367E1,2.956572E1,7.01393E1,0E0,0E0,0E0,9.025101E0,0E0,0E0],"parents":[2147483647,0,0,2,2,3,3,4,4,8,8],"right_children":[2,-1,4,6,8,-1,-1,-1,10,-1,-1],"split_conditions":[1E0,-5.9619486E-2,4E0,1E0,6E0,-5.813808E-2,1.1488857E-1,-6.139201E-2,1E0,-4.9037963E-2,1.1379496E-1],"split_indices":[3,0,3,4,3,0,0,0,4,0,0],"split_type":[0,0,0,0,0,0,0,0,0,0,0],"sum_hessian":[2.5687268E2,2.5252283E1,2.3162039E2,1.25959816E2,1.0566058E2,1.01889925E1,1.1577082E2,6.0375267E1,4.5285316E1,3.1494603E0,4.2135857E1],"tree_param":{"num_deleted":"0","num_feature":"5","num_nodes":"11","size_leaf_vector":"1"}},{"base_weights":[-1.07274525E-1,1.2165921E-1,-4.4821766E-1,7.6133233E-1,-6.1665505E-2,1.0922363E-1,4.2000034E-1,-5.3915847E-2,1.1075155E-1],"categories":[],"categories_nodes":[],"categories_segments":[],"categories_sizes":[],"default_left":[0,0,0,0,0,0,0,0,0],"id":18,"left_children":[1,-1,3,5,-1,-1,7,-1,-1],"loss_changes":[1.0172281E2,0E0,3.6934505E1,2.0628853E0,0E0,0E0,8.915497E0,0E0,0E0],"parents":[2147483647,0,0,2,2,3,3,6,6],"right_children":[2,-1,4,6,-1,-1,8,-1,-1],"split_conditions":[1E0,1.2165921E-1,1E0,4E0,-6.1665505E-2,1.0922363E-1,5E0,-5.3915847E-2,1.1075155E-1],"split_indices":[3,0,4,3,0,0,3,0,0],"split_type":[0,0,0,0,0,0,0,0,0],"sum_hessian":[2.2315985E2,4.517583E1,1.7798402E2,2.1325499E1,1.5665852E2,9.711129E0,1.1614368E1,4.939296E0,6.6750727E0],"tree_param":{"num_deleted":"0","num_feature":"5","num_nodes":"9","size_leaf_vector":"1"}},{"base_weights":[-2.1893676E-1,-4.245E-1,-1.7616433E-1,-3.5337932E-2,-4.607282E-2,-1.2320146E-1,-2.3198266E-1,-3.367607E-2,2.0550853E-2,1.3208868E-1,-1.5336604E-1,-8.411556E-2,-2.721065E-1,-5.4695565E-2,4.5839723E-2,-2.2100288E-1,-6.800897E-2,-4.8220318E-2,3.081219E-2,-1.381815E-1,-3.1561443E-1,1.36081865E-2,-1.5985212E-1,-2.9428843E-1,-2.6436213E-3,-1.9578224E-1,4.789901E-2,-6.940177E-2,2.0313425E-1,3.5787616E-2,-3.3687353E-1,-3.7546746E-2,-1.9487001E-1,1.7985924E-3,-3.6620874E-2,-2.3081735E-2,-5.271935E-2,2.2944469E-2,-3.4350183E-2,7.282898E-3,-3.4429964E-2,2.7919961E-2,-1.058407E-2,-1.6529849E-2,1.8365281E-3,4.581788E-2,-3.5597943E-3,-1.7207256E-2,3.981472E-2,1.2887972E-3,-4.0778708E-2,-1.0253376E-2,-3.6588512E-2],"categories":[],"categories_nodes":[],"categories_segments":[],"categories_sizes":[],"default_left":[0,0,0,0,0,0,0,0,0,0,0,0,0,0,0,0,0,0,0,0,0,0,0,0,0,0,0,0,0,0,0,0,0,0,0,0,0,0,0,0,0,0,0,0,0,0,0,0,0,0,0,0,0],"id":19,"left_children":[1,3,5,7,-1,9,11,-1,-1,13,15,17,19,21,-1,23,25,-1,27,29,31,-1,33,35,37,39,41,43,45,47,49,-1,51,-1,-1,-1,-1,-1,-1,-1,-1,-1,-1,-1,-1,-1,-1,-1,-1,-1,-1,-1,-1],"loss_changes":[1.7868919E0,4.8787498E-1,4.9461412E-1,3.689215E-1,0E0,7.359909E-1,4.8161173E-1,0E0,0E0,6.564347E-1,4.6752846E-1,9.1142035E-1,3.4350014E-1,1.718377E-1,0E0,7.3835564E-1,5.7802606E-1,0E0,2.9292965E-1,6.36652E-1,2.8360367E-1,0E0,2.0045163E-1,3.8939786E-1,1.076813E0,7.615064E-1,7.740517E-1,9.5235184E-2,3.9331216E-1,8.622421E-1,2.168588E-1,0E0,2.5366968E-1,0E0,0E0,0E0,0E0,0E0,0E0,0E0,0E0,0E0,0E0,0E0,0E0,0E0,0E0,0E0,0E0,0E0,0E0,0E0,0E0],"parents":[2147483647,0,0,1,1,2,2,3,3,5,5,6,6,9,9,10,10,11,11,12,12,13,13,15,15,16,16,18,18,19,19,20,20,22,22,23,23,24,24,25,25,26,26,27,27,28,28,29,29,30,30,32,32],"right_children":[2,4,6,8,-1,10,12,-1,-1,14,16,18,20,22,-1,24,26,-1,28,30,32,-1,34,36,38,40,42,44,46,48,50,-1,52,-1,-1,-1,-1,-1,-1,-1,-1,-1,-1,-1,-1,-1,-1,-1,-1,-1,-1,-1,-1],"split_conditions":[2E0,1E0,4E0,2E0,-4.607282E-2,1E0,4E0,-3.367607E-2,2.0550853E-2,6E0,7E0,5E0,5E0,3E0,4.5839723E-2,3E0,1E0,-4.8220318E-2,7E0,7E0,9E0,1.36081865E-2,2E0,6E0,1E0,8E0,2E0,3E0,3E0,6E0,1E0,-3.7546746E-2,7E0,1.7985924E-3,-3.6620874E-2,-2.3081735E-2,-5.271935E-2,2.2944469E-2,-3.4350183E-2,7.282898E-3,-3.4429964E-2,2.7919961E-2,-1.058407E-2,-1.6529849E-2,1.8365281E-3,4.581788E-2,-3.5597943E-3,-1.7207256E-2,3.981472E-2,1.2887972E-3,-4.0778708E-2,-1.0253376E-2,-3.6588512E-2],"split_indices":[2,4,1,1,0,4,2,0,0,2,2,1,1,2,0,1,0,0,1,2,2,0,1,2,0,2,1,2,2,2,4,0,1,0,0,0,0,0,0,0,0,0,0,0,0,0,0,0,0,0,0,0,0],"split_type":[0,0,0,0,0,0,0,0,0,0,0,0,0,0,0,0,0,0,0,0,0,0,0,0,0,0,0,0,0,0,0,0,0,0,0,0,0,0,0,0,0,0,0,0,0,0,0,0,0,0,0,0,0],"sum_hessian":[2.1073576E2,3.4759216E1,1.7597653E2,3.1284895E0,3.1630728E1,9.194361E1,8.403293E1,1.2126291E0,1.9158604E0,9.358813E0,8.25848E1,1.8596437E1,6.5436485E1,6.4812326E0,2.8775802E0,4.518841E1,3.739639E1,3.450133E0,1.5146305E1,1.7069527E1,4.8366962E1,2.1985269E0,4.2827063E0,3.357296E1,1.1615454E1,1.7459963E1,1.9936426E1,9.954511E0,5.191794E0,9.538111E0,7.5314155E0,3.0926893E1,1.744007E1,2.7906046E0,1.4921014E0,2.794771E1,5.6252484E0,7.10474E0,4.5107136E0,6.398018E0,1.1061944E1,7.6344233E0,1.2302004E1,4.3348045E0,5.619706E0,2.0657144E0,3.1260796E0,6.3949256E0,3.1431856E0,1.4075117E0,6.1239038E0,1.2363954E1,5.0761147E0],"tree_param":{"num_deleted":"0","num_feature":"5","num_nodes":"53","size_leaf_vector":"1"}},{"base_weights":[-2.2961237E-1,-6.0910847E-2,4.7934783E-1,1.1218209E0,-5.881238E-2,-4.3513246E-2,1.1965115E-1],"categories":[],"categories_nodes":[],"categories_segments":[],"categories_sizes":[],"default_left":[0,0,0,0,0,0,0],"id":20,"left_children":[1,-1,3,5,-1,-1,-1],"loss_changes":[5.731438E1,0E0,5.172209E1,5.9657516E0,0E0,0E0,0E0],"parents":[2147483647,0,0,2,2,3,3],"right_children":[2,-1,4,6,-1,-1,-1],"split_conditions":[5E0,-6.0910847E-2,6E0,1E0,-5.881238E-2,-4.3513246E-2,1.1965115E-1],"split_indices":[3,0,3,4,0,0,0],"split_type":[0,0,0,0,0,0,0],"sum_hessian":[2.109417E2,1.3748749E2,7.345421E1,4.582366E1,2.7630545E1,1.8767271E0,4.3946934E1],"tree_param":{"num_deleted":"0","num_feature":"5","num_nodes":"7","size_leaf_vector":"1"}},{"base_weights":[4.5181525E-1,-5.856815E-2,5.6835675E-1,9.447278E-1,8.517103E-2,-5.5818003E-2,1.0496443E-1,-6.0544845E-2,9.252918E-1,-4.859291E-2,1.0417163E-1],"categories":[],"categories_nodes":[],"categories_segments":[],"categories_sizes":[],"default_left":[0,0,0,0,0,0,0,0,0,0,0],"id":21,"left_children":[1,-1,3,5,7,-1,-1,-1,9,-1,-1],"loss_changes":[3.2094128E1,0E0,4.2958244E1,2.1547333E1,6.132238E1,0E0,0E0,0E0,8.334187E0,0E0,0E0],"parents":[2147483647,0,0,2,2,3,3,4,4,8,8],"right_children":[2,-1,4,6,8,-1,-1,-1,10,-1,-1],"split_conditions":[1E0,-5.856815E-2,4E0,1E0,6E0,-5.5818003E-2,1.0496443E-1,-6.0544845E-2,1E0,-4.859291E-2,1.0417163E-1],"split_indices":[3,0,3,4,3,0,0,0,4,0,0],"split_type":[0,0,0,0,0,0,0,0,0,0,0],"sum_hessian":[2.6168195E2,2.6019642E1,2.356623E2,1.3193674E2,1.0372556E2,8.327447E0,1.2360929E2,5.7081318E1,4.664424E1,3.312961E0,4.333128E1],"tree_param":{"num_deleted":"0","num_feature":"5","num_nodes":"11","size_leaf_vector":"1"}},{"base_weights":[-8.006679E-2,1.1052205E-1,-3.8284782E-1,7.967135E-1,-6.0576506E-2,1.03594676E-1,4.3910587E-1,-5.250556E-2,1.0188704E-1],"categories":[],"categories_nodes":[],"categories_segments":[],"categories_sizes":[],"default_left":[0,0,0,0,0,0,0,0,0],"id":22,"left_children":[1,-1,3,5,-1,-1,7,-1,-1],"loss_changes":[7.738795E1,0E0,4.5594322E1,1.9149857E0,0E0,0E0,7.7119226E0,0E0,0E0],"parents":[2147483647,0,0,2,2,3,3,6,6],"right_children":[2,-1,4,6,-1,-1,8,-1,-1],"split_conditions":[1E0,1.1052205E-1,1E0,4E0,-6.0576506E-2,1.03594676E-1,5E0,-5.250556E-2,1.0188704E-1],"split_indices":[3,0,4,3,0,0,3,0,0],"split_type":[0,0,0,0,0,0,0,0,0],"sum_hessian":[2.134569E2,4.2893368E1,1.7056352E2,2.6701128E1,1.438624E2,1.48618965E1,1.18392315E1,4.481222E0,7.35801E0],"tree_param":{"num_deleted":"0","num_feature":"5","num_nodes":"9","size_leaf_vector":"1"}},{"base_weights":[-2.2609651E-1,-6.047635E-2,1.6704148E-1,1.18412964E-1,-6.081037E-2],"categories":[],"categories_nodes":[],"categories_segments":[],"categories_sizes":[],"default_left":[0,0,0,0,0],"id":23,"left_children":[1,-1,3,-1,-1],"loss_changes":[3.195241E1,0E0,8.4097244E1,0E0,0E0],"parents":[2147483647,0,0,2,2],"right_children":[2,-1,4,-1,-1],"split_conditions":[4E0,-6.047635E-2,5E0,1.18412964E-1,-6.081037E-2],"split_indices":[3,0,3,0,0],"split_type":[0,0,0,0,0],"sum_hessian":[2.129567E2,1.0820057E2,1.0475613E2,4.5079075E1,5.967705E1],"tree_param":{"num_deleted":"0","num_feature":"5","num_nodes":"5","size_leaf_vector":"1"}},{"base_weights":[-2.2604151E-1,-5.9818186E-2,4.6215114E-1,1.0144365E0,-5.7607807E-2,-4.2136397E-2,1.0820738E-1],"categories":[],"categories_nodes":[],"categories_segments":[],"categories_sizes":[],"default_left":[0,0,0,0,0,0,0],"id":24,"left_children":[1,-1,3,5,-1,-1,-1],"loss_changes":[5.1276543E1,0E0,4.0983047E1,4.957409E0,0E0,0E0,0E0],"parents":[2147483647,0,0,2,2,3,3],"right_children":[2,-1,4,6,-1,-1,-1],"split_conditions":[5E0,-5.9818186E-2,6E0,1E0,-5.7607807E-2,-4.2136397E-2,1.0820738E-1],"split_indices":[3,0,3,4,0,0,0],"split_type":[0,0,0,0,0,0,0],"sum_hessian":[1.9813803E2,1.286833E2,6.9454735E1,4.5352444E1,2.4102287E1,1.8050568E0,4.3547386E1],"tree_param":{"num_deleted":"0","num_feature":"5","num_nodes":"7","size_leaf_vector":"1"}},{"base_weights":[4.0454155E-1,-5.7916563E-2,4.86742E-1,5.254462E-2,4.3150407E-1,2.9589078E-1,4.583846E-2,3.515041E-2,1.2063104E-1,2.5867412E-2,2.1886172E-2,-1.6488902E-2,2.443641E-2],"categories":[],"categories_nodes":[],"categories_segments":[],"categories_sizes":[],"default_left":[0,0,0,0,0,0,0,0,0,0,0,0,0],"id":25,"left_children":[1,-1,3,-1,5,7,-1,-1,9,-1,11,-1,-1],"loss_changes":[2.1066235E1,0E0,2.8158188E-1,0E0,2.4184418E-1,1.5205276E-1,0E0,0E0,8.059962E-2,0E0,2.3898861E-1,0E0,0E0],"parents":[2147483647,0,0,2,2,4,4,5,5,8,8,10,10],"right_children":[2,-1,4,-1,6,8,-1,-1,10,-1,12,-1,-1],"split_conditions":[1E0,-5.7916563E-2,6E0,5.254462E-2,7E0,1E0,4.583846E-2,3.515041E-2,2E0,2.5867412E-2,5E0,-1.6488902E-2,2.443641E-2],"split_indices":[4,0,2,0,2,0,0,0,1,0,1,0,0],"split_type":[0,0,0,0,0,0,0,0,0,0,0,0,0],"sum_hessian":[2.5603732E2,1.9278791E1,2.3675854E2,1.3420856E2,1.0254998E2,1.8950686E1,8.35993E1,1.3622411E1,5.328275E0,1.5465759E0,3.7816992E0,2.196522E0,1.5851771E0],"tree_param":{"num_deleted":"0","num_feature":"5","num_nodes":"13","size_leaf_vector":"1"}},{"base_weights":[-9.0405524E-2,1.0065092E-1,-3.7226176E-1,7.5445294E-1,-5.956761E-2,9.506681E-2,4.40468E-1,-5.0221033E-2,9.370395E-2],"categories":[],"categories_nodes":[],"categories_segments":[],"categories_sizes":[],"default_left":[0,0,0,0,0,0,0,0,0],"id":26,"left_children":[1,-1,3,5,-1,-1,7,-1,-1],"loss_changes":[6.3390015E1,0E0,4.145115E1,1.269002E0,0E0,0E0,6.274583E0,0E0,0E0],"parents":[2147483647,0,0,2,2,3,3,6,6],"right_children":[2,-1,4,6,-1,-1,8,-1,-1],"split_conditions":[1E0,1.0065092E-1,1E0,4E0,-5.956761E-2,9.506681E-2,5E0,-5.0221033E-2,9.370395E-2],"split_indices":[3,0,4,3,0,0,3,0,0],"split_type":[0,0,0,0,0,0,0,0,0],"sum_hessian":[2.0281947E2,4.0935936E1,1.6188353E2,2.6394566E1,1.3548897E2,1.4995711E1,1.1398853E1,3.9289265E0,7.469927E0],"tree_param":{"num_deleted":"0","num_feature":"5","num_nodes":"9","size_leaf_vector":"1"}},{"base_weights":[-2.1946627E-1,-5.942471E-2,1.5542711E-1,1.0692002E-1,-5.9699345E-2],"categories":[],"categories_nodes":[],"categories_segments":[],"categories_sizes":[],"default_left":[0,0,0,0,0],"id":27,"left_children":[1,-1,3,-1,-1],"loss_changes":[2.8989635E1,0E0,7.187615E1,0E0,0E0],"parents":[2147483647,0,0,2,2],"right_children":[2,-1,4,-1,-1],"split_conditions":[4E0,-5.942471E-2,5E0,1.0692002E-1,-5.9699345E-2],"split_indices":[3,0,3,0,0],"split_type":[0,0,0,0,0],"sum_hessian":[2.0467038E2,1.0205795E2,1.0261242E2,4.6147648E1,5.6464775E1],"tree_param":{"num_deleted":"0","num_feature":"5","num_nodes":"5","size_leaf_vector":"1"}},{"base_weights":[-2.1982221E-1,-5.5794276E-2,-1.8419668E-1,-1.1884855E-1,-2.4113369E-1,-4.503976E-2,-2.0686324E-1,-4.3449724E-1,-2.032019E-1,3.9115477E-2,-1.0993679E-1,-2.645358E-1,-2.4532E-3,-1.7877964E-2,-4.7148854E-2,-2.3023747E-1,-4.2406026E-2,-1.8331565E-1,1.9905427E-1,1.2758496E-2,-4.0748846E-2,-3.8447786E-2,-1.3210675E-1,-1.5386906E-1,3.199147E-2,-1.7169584E-1,-3.1699148E-1,-2.0307393E-1,1.7720307E-1,-3.4269806E-2,4.139603E-3,5.01216E-3,2.8883357E-2,-1.5948776E-2,9.777042E-3,2.7177592E-3,-2.9968536E-2,-3.0295746E-3,-1.8317463E-2,3.2812436E-3,-2.0982545E-2,-1.8104255E-2,-3.95753E-2,6.1224992E-3,-3.32444E-2,2.2566488E-2,6.5738516E-4],"categories":[],"categories_nodes":[],"categories_segments":[],"categories_sizes":[],"default_left":[0,0,0,0,0,0,0,0,0,0,0,0,0,0,0,0,0,0,0,0,0,0,0,0,0,0,0,0,0,0,0,0,0,0,0,0,0,0,0,0,0,0,0,0,0,0,0],"id":28,"left_children":[1,-1,3,5,7,9,11,13,15,17,19,21,23,-1,-1,25,27,29,31,33,-1,-1,35,37,-1,39,41,43,45,-1,-1,-1,-1,-1,-1,-1,-1,-1,-1,-1,-1,-1,-1,-1,-1,-1,-1],"loss_changes":[2.1849928E0,0E0,6.161909E-1,5.277138E-1,5.8389044E-1,2.568406E-1,4.4057226E-1,4.956603E-2,3.3146572E-1,7.7897227E-1,9.6792185E-1,4.127233E-1,5.005056E-1,0E0,0E0,2.8569674E-1,4.7787708E-1,3.4549138E-1,1.5426952E-1,3.031916E-1,0E0,0E0,4.1900718E-1,1.9676715E-2,0E0,3.3570826E-1,2.046225E-1,2.8358227E-1,4.668635E-2,0E0,0E0,0E0,0E0,0E0,0E0,0E0,0E0,0E0,0E0,0E0,0E0,0E0,0E0,0E0,0E0,0E0,0E0],"parents":[2147483647,0,0,2,2,3,3,4,4,5,5,6,6,7,7,8,8,9,9,10,10,11,11,12,12,15,15,16,16,17,17,18,18,19,19,22,22,23,23,25,25,26,26,27,27,28,28],"right_children":[2,-1,4,6,8,10,12,14,16,18,20,22,24,-1,-1,26,28,30,32,34,-1,-1,36,38,-1,40,42,44,46,-1,-1,-1,-1,-1,-1,-1,-1,-1,-1,-1,-1,-1,-1,-1,-1,-1,-1],"split_conditions":[1E0,-5.5794276E-2,5E0,4E0,6E0,2E0,4E0,1E0,7E0,2E0,3E0,6E0,1E0,-1.7877964E-2,-4.7148854E-2,4E0,9E0,1E0,1E0,3E0,-4.0748846E-2,-3.8447786E-2,7E0,5E0,3.199147E-2,7E0,8E0,7E0,1E0,-3.4269806E-2,4.139603E-3,5.01216E-3,2.8883357E-2,-1.5948776E-2,9.777042E-3,2.7177592E-3,-2.9968536E-2,-3.0295746E-3,-1.8317463E-2,3.2812436E-3,-2.0982545E-2,-1.8104255E-2,-3.95753E-2,6.1224992E-3,-3.32444E-2,2.2566488E-2,6.5738516E-4],"split_indices":[4,0,2,1,2,2,2,1,1,1,1,1,0,0,0,1,2,0,2,2,0,0,1,1,0,2,2,2,0,0,0,0,0,0,0,0,0,0,0,0,0,0,0,0,0,0,0],"split_type":[0,0,0,0,0,0,0,0,0,0,0,0,0,0,0,0,0,0,0,0,0,0,0,0,0,0,0,0,0,0,0,0,0,0,0,0,0,0,0,0,0,0,0,0,0,0,0],"sum_hessian":[1.8892331E2,1.6610678E1,1.7231264E2,8.166774E1,9.06449E1,4.524075E1,3.642699E1,1.31509695E1,7.749393E1,1.9870691E1,2.5370058E1,2.8181635E1,8.245353E0,2.399115E0,1.0751855E1,6.597012E1,1.1523807E1,8.250433E0,1.1620258E1,1.8640697E1,6.729361E0,1.3789291E1,1.4392344E1,5.9658775E0,2.2794752E0,4.1168633E1,2.480149E1,6.698454E0,4.825353E0,4.5196805E0,3.730753E0,4.9564314E0,6.663827E0,5.870389E0,1.2770308E1,7.8083186E0,6.584026E0,1.5334669E0,4.4324107E0,6.491405E0,3.4677227E1,1.0307869E1,1.4493621E1,2.374392E0,4.324062E0,3.5068102E0,1.318543E0],"tree_param":{"num_deleted":"0","num_feature":"5","num_nodes":"47","size_leaf_vector":"1"}},{"base_weights":[3.8329318E-1,-5.7550605E-2,4.922114E-1,8.1844383E-1,6.5849066E-2,-5.3844154E-2,9.168949E-2,-5.9480727E-2,7.948083E-1,-4.7776185E-2,9.0970546E-2],"categories":[],"categories_nodes":[],"categories_segments":[],"categories_sizes":[],"default_left":[0,0,0,0,0,0,0,0,0,0,0],"id":29,"left_children":[1,-1,3,5,7,-1,-1,-1,9,-1,-1],"loss_changes":[2.6397991E1,0E0,3.1255585E1,1.751735E1,4.7987476E1,0E0,0E0,0E0,7.355583E0,0E0,0E0],"parents":[2147483647,0,0,2,2,3,3,4,4,8,8],"right_children":[2,-1,4,6,8,-1,-1,-1,10,-1,-1],"split_conditions":[1E0,-5.7550605E-2,4E0,1E0,6E0,-5.3844154E-2,9.168949E-2,-5.9480727E-2,1E0,-4.7776185E-2,9.0970546E-2],"split_indices":[3,0,3,4,3,0,0,0,4,0,0],"split_type":[0,0,0,0,0,0,0,0,0,0,0],"sum_hessian":[2.490675E2,2.4970463E1,2.2409705E2,1.2643517E2,9.7661865E1,8.250792E0,1.1818438E2,5.132763E1,4.633424E1,3.5754414E0,4.2758797E1],"tree_param":{"num_deleted":"0","num_feature":"5","num_nodes":"11","size_leaf_vector":"1"}},{"base_weights":[-8.380941E-2,9.4577275E-2,-3.960126E-1,6.570655E-1,-5.8743197E-2,8.771833E-2,3.0894107E-1,-4.9558774E-2,8.430752E-2],"categories":[],"categories_nodes":[],"categories_segments":[],"categories_sizes":[],"default_left":[0,0,0,0,0,0,0,0,0],"id":30,"left_children":[1,-1,3,5,-1,-1,7,-1,-1],"loss_changes":[6.543997E1,0E0,3.1837593E1,1.6041565E0,0E0,0E0,5.1546135E0,0E0,0E0],"parents":[2147483647,0,0,2,2,3,3,6,6],"right_children":[2,-1,4,6,-1,-1,8,-1,-1],"split_conditions":[1E0,9.4577275E-2,1E0,4E0,-5.8743197E-2,8.771833E-2,5E0,-4.9558774E-2,8.430752E-2],"split_indices":[3,0,4,3,0,0,3,0,0],"split_type":[0,0,0,0,0,0,0,0,0],"sum_hessian":[2.0141933E2,4.639355E1,1.5502577E2,2.3470753E1,1.3155502E2,1.3447933E1,1.00228195E1,4.0279565E0,5.9948626E0],"tree_param":{"num_deleted":"0","num_feature":"5","num_nodes":"9","size_leaf_vector":"1"}},{"base_weights":[-1.9849905E-1,-5.8648415E-2,1.809956E-1,9.9739626E-2,-5.8595933E-2],"categories":[],"categories_nodes":[],"categories_segments":[],"categories_sizes":[],"default_left":[0,0,0,0,0],"id":31,"left_children":[1,-1,3,-1,-1],"loss_changes":[2.9098007E1,0E0,6.338996E1,0E0,0E0],"parents":[2147483647,0,0,2,2],"right_children":[2,-1,4,-1,-1],"split_conditions":[4E0,-5.8648415E-2,5E0,9.9739626E-2,-5.8595933E-2],"split_indices":[3,0,3,0,0],"split_type":[0,0,0,0,0],"sum_hessian":[1.9590436E2,9.659886E1,9.930549E1,4.7956627E1,5.134886E1],"tree_param":{"num_deleted":"0","num_feature":"5","num_nodes":"5","size_leaf_vector":"1"}},{"base_weights":[-2.0953147E-1,-5.8351766E-2,4.2383593E-1,9.2371327E-1,-5.6302812E-2,-3.922933E-2,9.812464E-2],"categories":[],"categories_nodes":[],"categories_segments":[],"categories_sizes":[],"default_left":[0,0,0,0,0,0,0],"id":32,"left_children":[1,-1,3,5,-1,-1,-1],"loss_changes":[4.3798103E1,0E0,3.4478622E1,3.873211E0,0E0,0E0,0E0],"parents":[2147483647,0,0,2,2,3,3],"right_children":[2,-1,4,6,-1,-1,-1],"split_conditions":[5E0,-5.8351766E-2,6E0,1E0,-5.6302812E-2,-3.922933E-2,9.812464E-2],"split_indices":[3,0,3,4,0,0,0],"split_type":[0,0,0,0,0,0,0],"sum_hessian":[1.8285892E2,1.15020905E2,6.783801E1,4.5071754E1,2.2766254E1,1.6441872E0,4.3427567E1],"tree_param":{"num_deleted":"0","num_feature":"5","num_nodes":"7","size_leaf_vector":"1"}},{"base_weights":[3.9206412E-1,-5.6241672E-2,4.7985613E-1,7.7926904E-1,7.304216E-2,-5.268097E-2,8.6382434E-2,-5.884099E-2,7.7257484E-1,-4.4558372E-2,8.571151E-2],"categories":[],"categories_nodes":[],"categories_segments":[],"categories_sizes":[],"default_left":[0,0,0,0,0,0,0,0,0,0,0],"id":33,"left_children":[1,-1,3,5,7,-1,-1,-1,9,-1,-1],"loss_changes":[2.1507454E1,0E0,2.8279408E1,1.5242859E1,4.660139E1,0E0,0E0,0E0,5.418129E0,0E0,0E0],"parents":[2147483647,0,0,2,2,3,3,4,4,8,8],"right_children":[2,-1,4,6,8,-1,-1,-1,10,-1,-1],"split_conditions":[1E0,-5.6241672E-2,4E0,1E0,6E0,-5.268097E-2,8.6382434E-2,-5.884099E-2,1E0,-4.4558372E-2,8.571151E-2],"split_indices":[3,0,3,4,3,0,0,0,4,0,0],"split_type":[0,0,0,0,0,0,0,0,0,0,0],"sum_hessian":[2.5244446E2,2.0808348E1,2.3163612E2,1.3290396E2,9.8732155E1,7.762985E0,1.25140976E2,5.0829E1,4.7903156E1,2.8315842E0,4.5071575E1],"tree_param":{"num_deleted":"0","num_feature":"5","num_nodes":"11","size_leaf_vector":"1"}},{"base_weights":[-4.929198E-2,8.846529E-2,-3.5112914E-1,6.847876E-1,-5.7922956E-2,8.222198E-2,4.7852674E-1,-4.6389576E-2,8.303303E-2],"categories":[],"categories_nodes":[],"categories_segments":[],"categories_sizes":[],"default_left":[0,0,0,0,0,0,0,0,0],"id":34,"left_children":[1,-1,3,5,-1,-1,7,-1,-1],"loss_changes":[5.468737E1,0E0,3.5012646E1,3.6891842E-1,0E0,0E0,4.7438993E0,0E0,0E0],"parents":[2147483647,0,0,2,2,3,3,6,6],"right_children":[2,-1,4,6,-1,-1,8,-1,-1],"split_conditions":[1E0,8.846529E-2,1E0,4E0,-5.7922956E-2,8.222198E-2,5E0,-4.6389576E-2,8.303303E-2],"split_indices":[3,0,4,3,0,0,3,0,0],"split_type":[0,0,0,0,0,0,0,0,0],"sum_hessian":[1.9189424E2,4.639815E1,1.454961E2,2.5894447E1,1.1960165E2,1.3747881E1,1.2146567E1,3.2151368E0,8.931431E0],"tree_param":{"num_deleted":"0","num_feature":"5","num_nodes":"9","size_leaf_vector":"1"}},{"base_weights":[-2.0004801E-1,-5.766045E-2,1.3693006E-1,9.276165E-2,-5.8126815E-2],"categories":[],"categories_nodes":[],"categories_segments":[],"categories_sizes":[],"default_left":[0,0,0,0,0],"id":35,"left_children":[1,-1,3,-1,-1],"loss_changes":[2.4348106E1,0E0,5.8315502E1,0E0,0E0],"parents":[2147483647,0,0,2,2],"right_children":[2,-1,4,-1,-1],"split_conditions":[4E0,-5.766045E-2,5E0,9.276165E-2,-5.8126815E-2],"split_indices":[3,0,3,0,0],"split_type":[0,0,0,0,0],"sum_hessian":[1.9025946E2,8.951724E1,1.0074222E2,4.7812443E1,5.2929775E1],"tree_param":{"num_deleted":"0","num_feature":"5","num_nodes":"5","size_leaf_vector":"1"}},{"base_weights":[-1.9842438E-1,-5.3810168E-2,-1.6518596E-1,-4.9091946E-2,-1.9352625E-1,-2.1703692E-1,1.07738495E-1,-2.3009703E-1,3.0983672E-2,-1.0501101E-1,-3.163487E-1,2.1065922E-1,-4.1702412E-2,-1.648444E-1,-2.800921E-1,-5.0252397E-2,2.0819796E-2,-2.0619854E-1,4.3901663E-2,-1.7292345E-1,-4.2880844E-2,4.2784173E-2,2.8691215E-2,-2.2411138E-1,1.0026823E-1,2.1647697E-2,-2.5277796E-1,-3.361777E-2,-2.2593242E-1,-2.1266935E-2,8.048864E-3,-2.7374918E-2,1.8895263E-3,-5.0180643E-3,1.0790868E-2,-6.483257E-3,-2.0442614E-2,1.6455986E-2,-9.559316E-3,-3.574475E-2,3.7702776E-3,2.1339139E-2,-8.398238E-3,-2.3873484E-2,1.5301577E-2,-3.2339152E-2,1.1709367E-2,-1.1764422E-2,-3.4431867E-2,1.5996965E-2,-6.04756E-3],"categories":[],"categories_nodes":[],"categories_segments":[],"categories_sizes":[],"default_left":[0,0,0,0,0,0,0,0,0,0,0,0,0,0,0,0,0,0,0,0,0,0,0,0,0,0,0,0,0,0,0,0,0,0,0,0,0,0,0,0,0,0,0,0,0,0,0,0,0,0,0],"id":36,"left_children":[1,-1,3,5,7,9,11,13,15,17,19,21,23,25,27,29,-1,31,33,35,-1,37,-1,39,41,43,45,-1,47,-1,49,-1,-1,-1,-1,-1,-1,-1,-1,-1,-1,-1,-1,-1,-1,-1,-1,-1,-1,-1,-1],"loss_changes":[1.8769698E0,0E0,5.170593E-1,8.8578874E-1,1.0605311E0,1.4637649E-1,2.79481E-1,3.1413984E-1,2.81871E-1,1.4591172E-1,5.5854857E-2,1.2325296E-1,2.29969E-1,8.310368E-1,1.0965395E-1,1.3174689E-1,0E0,9.0070814E-2,3.2508902E-2,4.5150965E-3,0E0,9.126022E-2,0E0,1.4668809E-1,1.2623349E-1,6.1982E-1,9.334607E-1,0E0,3.9709818E-1,0E0,1.249029E-1,0E0,0E0,0E0,0E0,0E0,0E0,0E0,0E0,0E0,0E0,0E0,0E0,0E0,0E0,0E0,0E0,0E0,0E0,0E0,0E0],"parents":[2147483647,0,0,2,2,3,3,4,4,5,5,6,6,7,7,8,8,9,9,10,10,11,11,12,12,13,13,14,14,15,15,17,17,18,18,19,19,21,21,23,23,24,24,25,25,26,26,28,28,30,30],"right_children":[2,-1,4,6,8,10,12,14,16,18,20,22,24,26,28,30,-1,32,34,36,-1,38,-1,40,42,44,46,-1,48,-1,50,-1,-1,-1,-1,-1,-1,-1,-1,-1,-1,-1,-1,-1,-1,-1,-1,-1,-1,-1,-1],"split_conditions":[1E0,-5.3810168E-2,2E0,1E0,7E0,4E0,4E0,3E0,9E0,1E0,1E0,2E0,6E0,5E0,6E0,4E0,2.0819796E-2,3E0,2E0,5E0,-4.2880844E-2,1E0,2.8691215E-2,1E0,7E0,1E0,1E1,-3.361777E-2,9E0,-2.1266935E-2,5E0,-2.7374918E-2,1.8895263E-3,-5.0180643E-3,1.0790868E-2,-6.483257E-3,-2.0442614E-2,1.6455986E-2,-9.559316E-3,-3.574475E-2,3.7702776E-3,2.1339139E-2,-8.398238E-3,-2.3873484E-2,1.5301577E-2,-3.2339152E-2,1.1709367E-2,-1.1764422E-2,-3.4431867E-2,1.5996965E-2,-6.04756E-3],"split_indices":[4,0,2,2,1,1,1,1,2,0,0,1,1,2,2,2,0,1,1,1,0,1,0,0,1,1,2,0,2,0,2,0,0,0,0,0,0,0,0,0,0,0,0,0,0,0,0,0,0,0,0],"split_type":[0,0,0,0,0,0,0,0,0,0,0,0,0,0,0,0,0,0,0,0,0,0,0,0,0,0,0,0,0,0,0,0,0,0,0,0,0,0,0,0,0,0,0,0,0,0,0,0,0,0,0],"sum_hessian":[1.7311844E2,1.4076427E1,1.59042E2,3.1742674E1,1.2729933E2,1.5142806E1,1.6599869E1,1.09446526E2,1.7852802E1,8.082712E0,7.0600934E0,9.587357E0,7.012511E0,4.934264E1,6.010389E1,1.2732555E1,5.120247E0,4.5834923E0,3.49922E0,4.218143E0,2.8419504E0,3.4821944E0,6.1051626E0,2.815929E0,4.196582E0,1.605229E1,3.3290348E1,2.6968868E1,3.313502E1,2.6638303E0,1.0068725E1,3.3592315E0,1.2242609E0,1.504219E0,1.9950008E0,1.6420394E0,2.5761037E0,1.7515625E0,1.7306321E0,1.6237285E0,1.1922004E0,2.5021777E0,1.6944044E0,5.1088414E0,1.0943449E1,2.8059141E1,5.2312093E0,1.8346846E1,1.4788174E1,2.7149997E0,7.353725E0],"tree_param":{"num_deleted":"0","num_feature":"5","num_nodes":"51","size_leaf_vector":"1"}},{"base_weights":[3.5780928E-1,-5.538897E-2,4.4396847E-1,7.366627E-1,4.296981E-2,-5.1333327E-2,8.141713E-2,-5.7826675E-2,7.235999E-1,-4.3245576E-2,8.063241E-2],"categories":[],"categories_nodes":[],"categories_segments":[],"categories_sizes":[],"default_left":[0,0,0,0,0,0,0,0,0,0,0],"id":37,"left_children":[1,-1,3,5,7,-1,-1,-1,9,-1,-1],"loss_changes":[1.9103415E1,0E0,2.5777191E1,1.2727257E1,4.009821E1,0E0,0E0,0E0,4.6737347E0,0E0,0E0],"parents":[2147483647,0,0,2,2,3,3,4,4,8,8],"right_children":[2,-1,4,6,8,-1,-1,-1,10,-1,-1],"split_conditions":[1E0,-5.538897E-2,4E0,1E0,6E0,-5.1333327E-2,8.141713E-2,-5.7826675E-2,1E0,-4.3245576E-2,8.063241E-2],"split_indices":[3,0,3,4,3,0,0,0,4,0,0],"split_type":[0,0,0,0,0,0,0,0,0,0,0],"sum_hessian":[2.390663E2,2.0173233E1,2.1889307E2,1.2605025E2,9.284281E1,7.0313478E0,1.190189E2,4.8617863E1,4.422495E1,2.6709692E0,4.155398E1],"tree_param":{"num_deleted":"0","num_feature":"5","num_nodes":"11","size_leaf_vector":"1"}},{"base_weights":[-6.569318E-2,8.329308E-2,-3.4660733E-1,6.196798E-1,-5.712366E-2,7.793713E-2,3.547491E-1,-4.6799265E-2,7.6470576E-2],"categories":[],"categories_nodes":[],"categories_segments":[],"categories_sizes":[],"default_left":[0,0,0,0,0,0,0,0,0],"id":38,"left_children":[1,-1,3,5,-1,-1,7,-1,-1],"loss_changes":[4.6233646E1,0E0,3.0604357E1,8.5594654E-1,0E0,0E0,4.3722415E0,0E0,0E0],"parents":[2147483647,0,0,2,2,3,3,6,6],"right_children":[2,-1,4,6,-1,-1,8,-1,-1],"split_conditions":[1E0,8.329308E-2,1E0,4E0,-5.712366E-2,7.793713E-2,5E0,-4.6799265E-2,7.6470576E-2],"split_indices":[3,0,4,3,0,0,3,0,0],"split_type":[0,0,0,0,0,0,0,0,0],"sum_hessian":[1.8100616E2,4.263972E1,1.3836644E2,2.5766798E1,1.1259965E2,1.4864923E1,1.0901875E1,3.5785396E0,7.323335E0],"tree_param":{"num_deleted":"0","num_feature":"5","num_nodes":"9","size_leaf_vector":"1"}},{"base_weights":[-2.2101027E-1,-5.679238E-2,1.18693806E-1,8.623538E-2,-5.693821E-2],"categories":[],"categories_nodes":[],"categories_segments":[],"categories_sizes":[],"default_left":[0,0,0,0,0],"id":39,"left_children":[1,-1,3,-1,-1],"loss_changes":[1.8758877E1,0E0,4.1919403E1,0E0,0E0],"parents":[2147483647,0,0,2,2],"right_children":[2,-1,4,-1,-1],"split_conditions":[4E0,-5.679238E-2,5E0,8.623538E-2,-5.693821E-2],"split_indices":[3,0,3,0,0],"split_type":[0,0,0,0,0],"sum_hessian":[1.5760664E2,7.764351E1,7.996314E1,3.8307644E1,4.1655495E1],"tree_param":{"num_deleted":"0","num_feature":"5","num_nodes":"5","size_leaf_vector":"1"}},{"base_weights":[-1.710808E-1,-5.696381E-2,4.230327E-1,8.3669263E-1,-5.4866504E-2,-3.9105196E-2,8.910678E-2],"categories":[],"categories_nodes":[],"categories_segments":[],"categories_sizes":[],"default_left":[0,0,0,0,0,0,0],"id":40,"left_children":[1,-1,3,5,-1,-1,-1],"loss_changes":[4.0918102E1,0E0,2.841336E1,3.6313972E0,0E0,0E0,0E0],"parents":[2147483647,0,0,2,2,3,3],"right_children":[2,-1,4,6,-1,-1,-1],"split_conditions":[5E0,-5.696381E-2,6E0,1E0,-5.4866504E-2,-3.9105196E-2,8.910678E-2],"split_indices":[3,0,3,4,0,0,0],"split_type":[0,0,0,0,0,0,0],"sum_hessian":[1.7078693E2,1.0224065E2,6.854629E1,4.817621E1,2.037008E1,1.7805772E0,4.6395634E1],"tree_param":{"num_deleted":"0","num_feature":"5","num_nodes":"7","size_leaf_vector":"1"}},{"base_weights":[3.3504292E-1,-5.4400384E-2,4.1578165E-1,7.016937E-1,4.979364E-4,-5.0469976E-2,7.766834E-2,-5.7237603E-2,6.8077475E-1,-4.205474E-2,7.669295E-2],"categories":[],"categories_nodes":[],"categories_segments":[],"categories_sizes":[],"default_left":[0,0,0,0,0,0,0,0,0,0,0],"id":41,"left_children":[1,-1,3,5,7,-1,-1,-1,9,-1,-1],"loss_changes":[1.6304005E1,0E0,2.470171E1,1.1538769E1,3.383895E1,0E0,0E0,0E0,4.0888577E0,0E0,0E0],"parents":[2147483647,0,0,2,2,3,3,4,4,8,8],"right_children":[2,-1,4,6,8,-1,-1,-1,10,-1,-1],"split_conditions":[1E0,-5.4400384E-2,4E0,1E0,6E0,-5.0469976E-2,7.766834E-2,-5.7237603E-2,1E0,-4.205474E-2,7.669295E-2],"split_indices":[3,0,3,4,3,0,0,0,4,0,0],"split_type":[0,0,0,0,0,0,0,0,0,0,0],"sum_hessian":[2.255339E2,1.8489605E1,2.070443E2,1.22213684E2,8.483061E1,6.8168955E0,1.1539679E2,4.613667E1,3.8693947E1,2.525754E0,3.616819E1],"tree_param":{"num_deleted":"0","num_feature":"5","num_nodes":"11","size_leaf_vector":"1"}},{"base_weights":[-8.228115E-2,7.895758E-2,-3.5618657E-1,-5.601514E-2,-1.8129222E-1,-6.616656E-2,-2.9777238E-1,6.457922E-2,-2.0107543E-1,-5.2935924E-2,-1.7510794E-1,1.5537192E-1,-2.1736822E-1,-4.4710958E-1,7.5919904E-2,-3.694951E-1,-1.0809309E-1,3.4830492E-2,2.7451047E-3,-3.9569076E-2,5.460717E-3,-4.934052E-2,-2.0331854E-2,-3.8120706E-2,2.490935E-2,-1.153626E-2,-4.4038378E-2,1.9454697E-2,-2.2041801E-2],"categories":[],"categories_nodes":[],"categories_segments":[],"categories_sizes":[],"default_left":[0,0,0,0,0,0,0,0,0,0,0,0,0,0,0,0,0,0,0,0,0,0,0,0,0,0,0,0,0],"id":42,"left_children":[1,-1,3,-1,5,7,9,11,13,-1,15,17,19,21,23,25,27,-1,-1,-1,-1,-1,-1,-1,-1,-1,-1,-1,-1],"loss_changes":[4.145281E1,0E0,4.6028996E0,0E0,9.5221686E-1,6.786126E-1,9.22627E-1,5.4372334E-1,1.3162415E0,0E0,2.8390336E-1,3.7672493E-1,2.7716053E-1,1.3786554E-2,8.6328954E-1,5.6560874E-2,7.1936345E-1,0E0,0E0,0E0,0E0,0E0,0E0,0E0,0E0,0E0,0E0,0E0,0E0],"parents":[2147483647,0,0,2,2,4,4,5,5,6,6,7,7,8,8,10,10,11,11,12,12,13,13,14,14,15,15,16,16],"right_children":[2,-1,4,-1,6,8,10,12,14,-1,16,18,20,22,24,26,28,-1,-1,-1,-1,-1,-1,-1,-1,-1,-1,-1,-1],"split_conditions":[1E0,7.895758E-2,1E0,-5.601514E-2,4E0,5E0,5E0,5E0,5E0,-5.2935924E-2,2E0,2E0,7E0,4E0,2E0,2E0,4E0,3.4830492E-2,2.7451047E-3,-3.9569076E-2,5.460717E-3,-4.934052E-2,-2.0331854E-2,-3.8120706E-2,2.490935E-2,-1.153626E-2,-4.4038378E-2,1.9454697E-2,-2.2041801E-2],"split_indices":[3,0,0,0,3,2,3,1,1,0,2,2,1,1,3,1,2,0,0,0,0,0,0,0,0,0,0,0,0],"split_type":[0,0,0,0,0,0,0,0,0,0,0,0,0,0,0,0,0,0,0,0,0,0,0,0,0,0,0,0,0],"sum_hessian":[1.7140569E2,4.0526096E1,1.308796E2,5.9401604E1,7.147798E1,3.6736614E1,3.4741367E1,1.8920898E1,1.7815716E1,1.0881643E1,2.3859724E1,1.4651694E1,4.2692046E0,9.109918E0,8.705797E0,4.9597006E0,1.8900024E1,5.1546E0,9.497094E0,2.3038151E0,1.9653894E0,6.7955637E0,2.3143544E0,2.061843E0,6.6439543E0,1.6547781E0,3.3049223E0,4.917816E0,1.3982207E1],"tree_param":{"num_deleted":"0","num_feature":"5","num_nodes":"29","size_leaf_vector":"1"}},{"base_weights":[-2.1689206E-1,-5.610175E-2,1.0608909E-1,8.183655E-2,-5.6561094E-2],"categories":[],"categories_nodes":[],"categories_segments":[],"categories_sizes":[],"default_left":[0,0,0,0,0],"id":43,"left_children":[1,-1,3,-1,-1],"loss_changes":[1.8074596E1,0E0,4.0867775E1,0E0,0E0],"parents":[2147483647,0,0,2,2],"right_children":[2,-1,4,-1,-1],"split_conditions":[4E0,-5.610175E-2,5E0,8.183655E-2,-5.6561094E-2],"split_indices":[3,0,3,0,0],"split_type":[0,0,0,0,0],"sum_hessian":[1.6108476E2,7.763273E1,8.345203E1,4.0396687E1,4.305534E1],"tree_param":{"num_deleted":"0","num_feature":"5","num_nodes":"5","size_leaf_vector":"1"}},{"base_weights":[-1.898457E-1,-5.2558966E-2,-1.5536357E-1,-1.792308E-1,-3.5031216E-4,-1.3918881E-1,-3.8964674E-1,-9.179791E-2,1.3136722E-1,-8.276734E-2,-2.2494355E-1,-5.8805816E-2,-4.8163213E-2,-1.9327112E-1,1.3444945E-2,2.7015117E-1,-2.8499762E-2,4.8713025E-2,-1.5403984E-1,-3.2039532E-1,-1.1047304E-2,1.6866267E-2,-1.2921385E-2,-3.344659E-2,-1.2122971E-2,3.863612E-3,4.7124084E-2,-3.2574993E-2,1.7331017E-2,-1.9635879E-2,1.1200562E-2,-3.9450573E-3,-1.8635845E-2,-2.3464678E-2,-4.0740844E-2,-8.21293E-3,3.28248E-3,-1.4089646E-3,4.2627323E-3],"categories":[],"categories_nodes":[],"categories_segments":[],"categories_sizes":[],"default_left":[0,0,0,0,0,0,0,0,0,0,0,0,0,0,0,0,0,0,0,0,0,0,0,0,0,0,0,0,0,0,0,0,0,0,0,0,0,0,0],"id":44,"left_children":[1,-1,3,5,7,9,11,13,15,17,19,21,-1,23,-1,25,27,29,31,33,35,37,-1,-1,-1,-1,-1,-1,-1,-1,-1,-1,-1,-1,-1,-1,-1,-1,-1],"loss_changes":[1.7053895E0,0E0,5.230894E-1,9.781716E-1,2.5138235E-1,4.8699355E-1,5.509417E-1,3.0872792E-1,1.9746524E-1,6.129775E-1,8.3125377E-1,3.0310707E-2,0E0,5.011019E-2,0E0,1.9938529E-1,3.49149E-1,3.8607872E-1,1.4870626E-1,1.1507678E-1,4.526959E-2,3.3354033E-3,0E0,0E0,0E0,0E0,0E0,0E0,0E0,0E0,0E0,0E0,0E0,0E0,0E0,0E0,0E0,0E0,0E0],"parents":[2147483647,0,0,2,2,3,3,4,4,5,5,6,6,7,7,8,8,9,9,10,10,11,11,13,13,15,15,16,16,17,17,18,18,19,19,20,20,21,21],"right_children":[2,-1,4,6,8,10,12,14,16,18,20,22,-1,24,-1,26,28,30,32,34,36,38,-1,-1,-1,-1,-1,-1,-1,-1,-1,-1,-1,-1,-1,-1,-1,-1,-1],"split_conditions":[1E0,-5.2558966E-2,7E0,9E0,1E0,4E0,1E0,9E0,5E0,3E0,6E0,1E1,-4.8163213E-2,2E0,1.3444945E-2,4E0,8E0,1E0,1E0,1E0,7E0,1E0,-1.2921385E-2,-3.344659E-2,-1.2122971E-2,3.863612E-3,4.7124084E-2,-3.2574993E-2,1.7331017E-2,-1.9635879E-2,1.1200562E-2,-3.9450573E-3,-1.8635845E-2,-2.3464678E-2,-4.0740844E-2,-8.21293E-3,3.28248E-3,-1.4089646E-3,4.2627323E-3],"split_indices":[4,0,1,2,0,1,1,2,2,2,2,2,0,2,0,2,2,1,1,0,2,0,0,0,0,0,0,0,0,0,0,0,0,0,0,0,0,0,0],"split_type":[0,0,0,0,0,0,0,0,0,0,0,0,0,0,0,0,0,0,0,0,0,0,0,0,0,0,0,0,0,0,0,0,0,0,0,0,0,0,0],"sum_hessian":[1.5335968E2,1.295711E1,1.4040257E2,1.21533905E2,1.8868668E1,1.0349953E2,1.8034382E1,1.1315629E1,7.5530376E0,6.3611885E1,3.9887638E1,4.2799864E0,1.37543955E1,7.912556E0,3.4030728E0,3.6738446E0,3.8791933E0,2.2472372E1,4.113951E1,2.7235727E1,1.2651914E1,2.4294007E0,1.8505856E0,1.4425659E0,6.4699903E0,2.2618754E0,1.4119692E0,1.3203212E0,2.558872E0,4.1809907E0,1.8291382E1,9.538909E0,3.1600601E1,1.5579412E1,1.1656314E1,4.4957848E0,8.156129E0,1.3092262E0,1.1201745E0],"tree_param":{"num_deleted":"0","num_feature":"5","num_nodes":"39","size_leaf_vector":"1"}},{"base_weights":[3.2780084E-1,-5.320979E-2,3.882354E-2],"categories":[],"categories_nodes":[],"categories_segments":[],"categories_sizes":[],"default_left":[0,0,0],"id":45,"left_children":[1,-1,-1],"loss_changes":[1.1496672E1,0E0,0E0],"parents":[2147483647,0,0],"right_children":[2,-1,-1],"split_conditions":[1E0,-5.320979E-2,3.882354E-2],"split_indices":[4,0,0],"split_type":[0,0,0],"sum_hessian":[2.1625244E2,1.3687939E1,2.025645E2],"tree_param":{"num_deleted":"0","num_feature":"5","num_nodes":"3","size_leaf_vector":"1"}},{"base_weights":[-4.0427536E-2,7.537436E-2,-3.3866304E-1,5.7831806E-1,-5.591333E-2,7.224625E-2,3.2639575E-1,-4.40738E-2,7.00785E-2],"categories":[],"categories_nodes":[],"categories_segments":[],"categories_sizes":[],"default_left":[0,0,0,0,0,0,0,0,0],"id":46,"left_children":[1,-1,3,5,-1,-1,7,-1,-1],"loss_changes":[4.030288E1,0E0,2.531382E1,6.5209484E-1,0E0,0E0,3.3885436E0,0E0,0E0],"parents":[2147483647,0,0,2,2,3,3,6,6],"right_children":[2,-1,4,6,-1,-1,8,-1,-1],"split_conditions":[1E0,7.537436E-2,1E0,4E0,-5.591333E-2,7.224625E-2,5E0,-4.40738E-2,7.00785E-2],"split_indices":[3,0,4,3,0,0,3,0,0],"split_type":[0,0,0,0,0,0,0,0,0],"sum_hessian":[1.6808426E2,4.5471336E1,1.2261293E2,2.345125E1,9.916168E1,1.3728373E1,9.722877E0,3.130722E0,6.5921545E0],"tree_param":{"num_deleted":"0","num_feature":"5","num_nodes":"9","size_leaf_vector":"1"}},{"base_weights":[-1.7120667E-1,-5.5415988E-2,1.5599856E-1,7.774257E-2,-5.5699255E-2],"categories":[],"categories_nodes":[],"categories_segments":[],"categories_sizes":[],"default_left":[0,0,0,0,0],"id":47,"left_children":[1,-1,3,-1,-1],"loss_changes":[1.9817436E1,0E0,3.840127E1,0E0,0E0],"parents":[2147483647,0,0,2,2],"right_children":[2,-1,4,-1,-1],"split_conditions":[4E0,-5.5415988E-2,5E0,7.774257E-2,-5.5699255E-2],"split_indices":[3,0,3,0,0],"split_type":[0,0,0,0,0],"sum_hessian":[1.564646E2,7.177142E1,8.469318E1,4.5204002E1,3.9489174E1],"tree_param":{"num_deleted":"0","num_feature":"5","num_nodes":"5","size_leaf_vector":"1"}},{"base_weights":[-1.8543366E-1,-5.1738776E-2,-1.5274987E-1,-1.0660419E-1,-2.0535986E-1,5.555281E-3,-1.785323E-1,-2.4438077E-1,-8.665486E-2,-1.6797018E-1,5.0321244E-2,-1.3468135E-2,-2.3157765E-1,-2.0901203E-1,-3.973972E-2,-2.7895847E-2,3.3297904E-2,-3.681465E-2,-1.2520743E-2,1.1954708E-1,-4.943237E-2,9.424659E-2,-1.0261614E-1,-4.143898E-2,-1.6903907E-1,-2.442226E-1,-1.2098837E-2,2.632808E-1,-6.653871E-2,6.2367707E-3,-9.253628E-3,-3.3503019E-3,2.265209E-2,9.816046E-3,-2.810509E-2,4.3238006E-3,1.3993419E-2,-3.495533E-2,2.9051697E-3,3.7972692E-3,-2.2376746E-2,-2.0397745E-2,-4.2715248E-2,-4.249807E-3,4.558536E-2,-2.1379737E-3,-1.4944101E-2],"categories":[],"categories_nodes":[],"categories_segments":[],"categories_sizes":[],"default_left":[0,0,0,0,0,0,0,0,0,0,0,0,0,0,0,0,0,0,0,0,0,0,0,0,0,0,0,0,0,0,0,0,0,0,0,0,0,0,0,0,0,0,0,0,0,0,0],"id":48,"left_children":[1,-1,3,5,7,9,11,13,15,17,19,21,23,25,-1,-1,27,-1,29,31,33,35,37,-1,39,41,-1,43,45,-1,-1,-1,-1,-1,-1,-1,-1,-1,-1,-1,-1,-1,-1,-1,-1,-1,-1],"loss_changes":[1.5851707E0,0E0,3.205619E-1,6.240061E-1,2.7913094E-1,2.5038123E-1,4.0912426E-1,1.7803836E-1,4.15021E-1,2.0130573E-1,1.8218523E-1,1.2982114E-1,3.3661163E-1,9.8443985E-2,0E0,0E0,2.8674644E-1,0E0,3.4294542E-2,2.5909698E-1,4.092667E-1,8.368932E-3,2.483153E-1,0E0,3.2789624E-1,1.22801185E-1,0E0,2.402547E-1,3.0403588E-2,0E0,0E0,0E0,0E0,0E0,0E0,0E0,0E0,0E0,0E0,0E0,0E0,0E0,0E0,0E0,0E0,0E0,0E0],"parents":[2147483647,0,0,2,2,3,3,4,4,5,5,6,6,7,7,8,8,9,9,10,10,11,11,12,12,13,13,16,16,18,18,19,19,20,20,21,21,22,22,24,24,25,25,27,27,28,28],"right_children":[2,-1,4,6,8,10,12,14,16,18,20,22,24,26,-1,-1,28,-1,30,32,34,36,38,-1,40,42,-1,44,46,-1,-1,-1,-1,-1,-1,-1,-1,-1,-1,-1,-1,-1,-1,-1,-1,-1,-1],"split_conditions":[1E0,-5.1738776E-2,4E0,4E0,7E0,1E0,1E0,9E0,4E0,1E0,3E0,6E0,6E0,6E0,-3.973972E-2,-2.7895847E-2,5E0,-3.681465E-2,2E0,2E0,2E0,1E0,8E0,-4.143898E-2,7E0,5E0,-1.2098837E-2,1E0,1E0,6.2367707E-3,-9.253628E-3,-3.3503019E-3,2.265209E-2,9.816046E-3,-2.810509E-2,4.3238006E-3,1.3993419E-2,-3.495533E-2,2.9051697E-3,3.7972692E-3,-2.2376746E-2,-2.0397745E-2,-4.2715248E-2,-4.249807E-3,4.558536E-2,-2.1379737E-3,-1.4944101E-2],"split_indices":[4,0,1,2,1,1,1,2,2,0,1,2,2,2,0,0,2,0,2,2,2,0,2,0,2,2,0,0,0,0,0,0,0,0,0,0,0,0,0,0,0,0,0,0,0,0,0],"split_type":[0,0,0,0,0,0,0,0,0,0,0,0,0,0,0,0,0,0,0,0,0,0,0,0,0,0,0,0,0,0,0,0,0,0,0,0,0,0,0,0,0,0,0,0,0,0,0],"sum_hessian":[1.5238948E2,1.2329935E1,1.4005956E2,7.622597E1,6.3833584E1,3.0144146E1,4.608182E1,4.7244553E1,1.658903E1,5.6173873E0,2.4526758E1,1.1512289E1,3.456953E1,4.0296276E1,6.948276E0,5.8634324E0,1.0725596E1,1.8573532E0,3.7600338E0,1.4361742E1,1.0165016E1,5.187366E0,6.3249235E0,7.377515E0,2.7192017E1,2.75153E1,1.2780976E1,2.7510898E0,7.974507E0,2.0561702E0,1.7038637E0,6.1909738E0,8.170769E0,6.5606265E0,3.6043894E0,3.370597E0,1.816769E0,1.6241294E0,4.7007937E0,5.749714E0,2.1442303E1,2.4287119E1,3.2281828E0,1.3642169E0,1.3868728E0,5.976725E0,1.997782E0],"tree_param":{"num_deleted":"0","num_feature":"5","num_nodes":"47","size_leaf_vector":"1"}},{"base_weights":[3.01392E-1,-5.358333E-2,3.8138837E-1,6.460506E-1,3.2998677E-2,-4.93887E-2,7.224328E-2,-5.6637038E-2,6.731178E-1,-3.3675686E-2,7.162522E-2],"categories":[],"categories_nodes":[],"categories_segments":[],"categories_sizes":[],"default_left":[0,0,0,0,0,0,0,0,0,0,0],"id":49,"left_children":[1,-1,3,5,7,-1,-1,-1,9,-1,-1],"loss_changes":[1.45556965E1,0E0,1.8067081E1,1.005909E1,3.3278778E1,0E0,0E0,0E0,2.0672436E0,0E0,0E0],"parents":[2147483647,0,0,2,2,3,3,4,4,8,8],"right_children":[2,-1,4,6,8,-1,-1,-1,10,-1,-1],"split_conditions":[1E0,-5.358333E-2,4E0,1E0,6E0,-4.93887E-2,7.224328E-2,-5.6637038E-2,1E0,-3.3675686E-2,7.162522E-2],"split_indices":[3,0,3,4,3,0,0,0,4,0,0],"split_type":[0,0,0,0,0,0,0,0,0,0,0],"sum_hessian":[2.1327902E2,1.8104362E1,1.9517465E2,1.10429756E2,8.4744896E1,6.5914907E0,1.0383827E2,4.382501E1,4.0919888E1,1.3973554E0,3.9522533E1],"tree_param":{"num_deleted":"0","num_feature":"5","num_nodes":"11","size_leaf_vector":"1"}},{"base_weights":[-8.26923E-2,7.27522E-2,-3.4149784E-1,5.536234E-1,-5.544157E-2,6.83757E-2,3.5556367E-1,-4.2773556E-2,6.821043E-2],"categories":[],"categories_nodes":[],"categories_segments":[],"categories_sizes":[],"default_left":[0,0,0,0,0,0,0,0,0],"id":50,"left_children":[1,-1,3,5,-1,-1,7,-1,-1],"loss_changes":[3.2586796E1,0E0,2.2713423E1,3.520441E-1,0E0,0E0,3.1665869E0,0E0,0E0],"parents":[2147483647,0,0,2,2,3,3,6,6],"right_children":[2,-1,4,6,-1,-1,8,-1,-1],"split_conditions":[1E0,7.27522E-2,1E0,4E0,-5.544157E-2,6.83757E-2,5E0,-4.2773556E-2,6.821043E-2],"split_indices":[3,0,4,3,0,0,3,0,0],"split_type":[0,0,0,0,0,0,0,0,0],"sum_hessian":[1.532213E2,3.6655823E1,1.1656547E2,2.2091427E1,9.4474045E1,1.1851934E1,1.0239492E1,2.9215167E0,7.3179755E0],"tree_param":{"num_deleted":"0","num_feature":"5","num_nodes":"9","size_leaf_vector":"1"}},{"base_weights":[-1.8978855E-1,-5.4842055E-2,1.16625875E-1,7.5015396E-2,-5.5286493E-2],"categories":[],"categories_nodes":[],"categories_segments":[],"categories_sizes":[],"default_left":[0,0,0,0,0],"id":51,"left_children":[1,-1,3,-1,-1],"loss_changes":[1.614872E1,0E0,3.4242832E1,0E0,0E0],"parents":[2147483647,0,0,2,2],"right_children":[2,-1,4,-1,-1],"split_conditions":[4E0,-5.4842055E-2,5E0,7.5015396E-2,-5.5286493E-2],"split_indices":[3,0,3,0,0],"split_type":[0,0,0,0,0],"sum_hessian":[1.4537143E2,6.661474E1,7.875668E1,4.040326E1,3.8353424E1],"tree_param":{"num_deleted":"0","num_feature":"5","num_nodes":"5","size_leaf_vector":"1"}},{"base_weights":[-1.5393911E-1,-5.0744772E-2,-1.2346799E-1,-8.111121E-2,-1.6091643E-1,-5.256551E-3,-1.6230093E-1,-3.7093604E-1,-1.2407679E-1,-1.460738E-1,3.2479983E-2,-2.1795185E-1,-1.1269801E-3,-4.809013E-3,-4.832259E-2,-1.7922024E-1,-2.0292338E-2,-2.445136E-1,1.1810265E-2,8.535853E-2,-2.1064354E-1,-1.369965E-1,-3.0866846E-1,-8.5620284E-2,1.87174E-2,-1.3437515E-1,-2.1980292E-1,1.4949406E-2,-1.4543816E-1,-3.467948E-2,-1.2780656E-2,1.2987685E-2,5.800344E-4,-1.0728403E-2,-3.1017149E-2,-2.2532547E-2,-3.10118E-3,-4.6681687E-2,-7.197402E-3,5.173536E-4,-2.9897586E-2,-7.526435E-3,-2.3143714E-2,-2.6504532E-2,-2.9996545E-3,-2.8133696E-2,5.180381E-4],"categories":[],"categories_nodes":[],"categories_segments":[],"categories_sizes":[],"default_left":[0,0,0,0,0,0,0,0,0,0,0,0,0,0,0,0,0,0,0,0,0,0,0,0,0,0,0,0,0,0,0,0,0,0,0,0,0,0,0,0,0,0,0,0,0,0,0],"id":52,"left_children":[1,-1,3,5,7,9,11,13,15,17,19,21,23,-1,-1,25,27,29,-1,31,33,35,37,39,-1,41,43,-1,45,-1,-1,-1,-1,-1,-1,-1,-1,-1,-1,-1,-1,-1,-1,-1,-1,-1,-1],"loss_changes":[1.5489402E0,0E0,2.0752597E-1,4.134404E-1,5.171596E-1,1.9504455E-1,2.9089588E-1,3.5234177E-1,3.5937768E-1,2.3043257E-1,3.9158773E-1,1.3487184E-1,1.6456737E-1,0E0,0E0,4.5616627E-2,5.1334214E-1,2.6966482E-2,0E0,8.6307645E-2,2.3095995E-2,1.2917805E-1,3.6235178E-1,1.396772E-1,0E0,1.098935E-1,1.6469133E-1,0E0,2.8445876E-1,0E0,0E0,0E0,0E0,0E0,0E0,0E0,0E0,0E0,0E0,0E0,0E0,0E0,0E0,0E0,0E0,0E0,0E0],"parents":[2147483647,0,0,2,2,3,3,4,4,5,5,6,6,7,7,8,8,9,9,10,10,11,11,12,12,15,15,16,16,17,17,19,19,20,20,21,21,22,22,23,23,25,25,26,26,28,28],"right_children":[2,-1,4,6,8,10,12,14,16,18,20,22,24,-1,-1,26,28,30,-1,32,34,36,38,40,-1,42,44,-1,46,-1,-1,-1,-1,-1,-1,-1,-1,-1,-1,-1,-1,-1,-1,-1,-1,-1,-1],"split_conditions":[1E0,-5.0744772E-2,5E0,4E0,6E0,1E0,4E0,1E0,5E0,4E0,4E0,1E0,7E0,-4.809013E-3,-4.832259E-2,1E0,8E0,1E0,1.1810265E-2,3E0,3E0,2E0,6E0,6E0,1.87174E-2,9E0,1E1,1.4949406E-2,7E0,-3.467948E-2,-1.2780656E-2,1.2987685E-2,5.800344E-4,-1.0728403E-2,-3.1017149E-2,-2.2532547E-2,-3.10118E-3,-4.6681687E-2,-7.197402E-3,5.173536E-4,-2.9897586E-2,-7.526435E-3,-2.3143714E-2,-2.6504532E-2,-2.9996545E-3,-2.8133696E-2,5.180381E-4],"split_indices":[4,0,2,1,2,1,2,1,1,2,2,0,1,0,0,0,2,0,0,1,1,2,1,1,0,2,2,0,1,0,0,0,0,0,0,0,0,0,0,0,0,0,0,0,0,0,0],"split_type":[0,0,0,0,0,0,0,0,0,0,0,0,0,0,0,0,0,0,0,0,0,0,0,0,0,0,0,0,0,0,0,0,0,0,0,0,0,0,0,0,0,0,0,0,0,0,0],"sum_hessian":[1.4861221E2,1.0551092E1,1.3806113E2,6.627053E1,7.1790596E1,3.4811382E1,3.1459145E1,9.3601675E0,6.243043E1,6.750479E0,2.8060904E1,2.3122887E1,8.336259E0,2.7840319E0,6.576135E0,4.0294197E1,2.2136234E1,4.972145E0,1.7783343E0,2.358102E1,4.4798837E0,1.3545269E1,9.577618E0,6.1306505E0,2.2056084E0,2.1189877E1,1.910432E1,9.310306E0,1.2825929E1,1.5991569E0,3.372988E0,1.4714667E1,8.866352E0,3.2169833E0,1.2629002E0,6.7738442E0,6.771425E0,5.158625E0,4.418992E0,4.9850187E0,1.1456314E0,1.4273023E1,6.916854E0,1.5107004E1,3.997316E0,6.286196E0,6.539732E0],"tree_param":{"num_deleted":"0","num_feature":"5","num_nodes":"47","size_leaf_vector":"1"}},{"base_weights":[2.839111E-1,-5.28091E-2,3.6132556E-1,6.232991E-1,-3.9544536E-4,-4.858573E-2,6.983744E-2,-5.6085385E-2,6.0114247E-1,-4.151767E-2,6.886636E-2],"categories":[],"categories_nodes":[],"categories_segments":[],"categories_sizes":[],"default_left":[0,0,0,0,0,0,0,0,0,0,0],"id":53,"left_children":[1,-1,3,5,7,-1,-1,-1,9,-1,-1],"loss_changes":[1.2770554E1,0E0,1.7369638E1,9.191444E0,2.6630531E1,0E0,0E0,0E0,3.6748161E0,0E0,0E0],"parents":[2147483647,0,0,2,2,3,3,4,4,8,8],"right_children":[2,-1,4,6,8,-1,-1,-1,10,-1,-1],"split_conditions":[1E0,-5.28091E-2,4E0,1E0,6E0,-4.858573E-2,6.983744E-2,-5.6085385E-2,1E0,-4.151767E-2,6.886636E-2],"split_indices":[3,0,3,4,3,0,0,0,4,0,0],"split_type":[0,0,0,0,0,0,0,0,0,0,0],"sum_hessian":[1.991209E2,1.6824688E1,1.822962E2,1.05306015E2,7.699019E1,6.3290834E0,9.897693E1,3.9891006E1,3.7099182E1,2.6446798E0,3.4454502E1],"tree_param":{"num_deleted":"0","num_feature":"5","num_nodes":"11","size_leaf_vector":"1"}},{"base_weights":[-6.1656684E-2,7.007593E-2,-3.2608017E-1,-5.429628E-2,-1.5042785E-1,-1.7824583E-1,5.888427E-2,-1.4599448E-1,-3.9262596E-1,-1.3294756E-1,2.044586E-1,-1.7861533E-1,-1.6771258E-3,-4.4876084E-2,-1.1694851E-2,-2.945863E-2,3.1924788E-3,2.9225765E-2,-4.223667E-3,-7.088972E-3,-3.2305967E-2,9.2726415E-3,-1.5496748E-2],"categories":[],"categories_nodes":[],"categories_segments":[],"categories_sizes":[],"default_left":[0,0,0,0,0,0,0,0,0,0,0,0,0,0,0,0,0,0,0,0,0,0,0],"id":54,"left_children":[1,-1,3,-1,5,7,9,11,13,15,17,19,21,-1,-1,-1,-1,-1,-1,-1,-1,-1,-1],"loss_changes":[2.9867739E1,0E0,4.1028833E0,0E0,3.719262E-1,3.232261E-1,2.5152573E-1,2.3242486E-1,4.973817E-2,1.1792404E-1,1.1980808E-1,6.0435104E-1,1.6086577E-1,0E0,0E0,0E0,0E0,0E0,0E0,0E0,0E0,0E0,0E0],"parents":[2147483647,0,0,2,2,4,4,5,5,6,6,7,7,8,8,9,9,10,10,11,11,12,12],"right_children":[2,-1,4,-1,6,8,10,12,14,16,18,20,22,-1,-1,-1,-1,-1,-1,-1,-1,-1,-1],"split_conditions":[1E0,7.007593E-2,1E0,-5.429628E-2,1E1,9E0,5E0,6E0,6E0,5E0,4E0,4E0,4E0,-4.4876084E-2,-1.1694851E-2,-2.945863E-2,3.1924788E-3,2.9225765E-2,-4.223667E-3,-7.088972E-3,-3.2305967E-2,9.2726415E-3,-1.5496748E-2],"split_indices":[3,0,0,0,2,2,1,3,1,3,3,3,2,0,0,0,0,0,0,0,0,0,0],"split_type":[0,0,0,0,0,0,0,0,0,0,0,0,0,0,0,0,0,0,0,0,0,0,0],"sum_hessian":[1.4601952E2,3.717685E1,1.08842674E2,4.7769394E1,6.107328E1,5.4039722E1,7.033559E0,4.8434277E1,5.605444E0,3.072061E0,3.961498E0,3.931095E1,9.123327E0,4.135504E0,1.4699401E0,1.15397E0,1.9180909E0,2.7854598E0,1.1760383E0,2.3371452E1,1.5939499E1,5.890666E0,3.2326612E0],"tree_param":{"num_deleted":"0","num_feature":"5","num_nodes":"23","size_leaf_vector":"1"}},{"base_weights":[-1.9788407E-1,-5.425601E-2,9.051459E-2,7.189671E-2,-5.4901388E-2],"categories":[],"categories_nodes":[],"categories_segments":[],"categories_sizes":[],"default_left":[0,0,0,0,0],"id":55,"left_children":[1,-1,3,-1,-1],"loss_changes":[1.3828803E1,0E0,3.1072756E1,0E0,0E0],"parents":[2147483647,0,0,2,2],"right_children":[2,-1,4,-1,-1],"split_conditions":[4E0,-5.425601E-2,5E0,7.189671E-2,-5.4901388E-2],"split_indices":[3,0,3,0,0],"split_type":[0,0,0,0,0],"sum_hessian":[1.3762299E2,6.2293007E1,7.532999E1,3.793135E1,3.7398636E1],"tree_param":{"num_deleted":"0","num_feature":"5","num_nodes":"5","size_leaf_vector":"1"}},{"base_weights":[-1.4026158E-1,-5.0146677E-2,-1.0992538E-1,-2.9739962E-4,-1.410714E-1,1.4259322E-1,-2.0238142E-1,-1.6625303E-1,2.0994205E-2,1.7041161E-3,2.836286E-2,-3.6338206E-2,-3.0757753E-2,-8.915692E-2,-2.2993264E-1,-6.015139E-2,1.5785515E-1,-1.4242478E-2,5.3367607E-2,-7.6506674E-2,5.614354E-3,4.578635E-2,-1.7233738E-1,-1.9395009E-1,-3.23406E-2,1.5388523E-2,-2.0670881E-2,2.3148792E-2,-5.1676217E-3,2.1892467E-3,8.321831E-3,7.087366E-3,-3.0571153E-2,-9.273183E-3,1.0396677E-2,-2.1303827E-2,9.83117E-4,-2.8627494E-2,-7.785243E-3,-1.4383696E-2,9.948399E-3],"categories":[],"categories_nodes":[],"categories_segments":[],"categories_sizes":[],"default_left":[0,0,0,0,0,0,0,0,0,0,0,0,0,0,0,0,0,0,0,0,0,0,0,0,0,0,0,0,0,0,0,0,0,0,0,0,0,0,0,0,0],"id":56,"left_children":[1,-1,3,5,7,9,11,13,15,17,-1,-1,19,21,23,25,27,-1,29,31,-1,33,35,37,-1,39,-1,-1,-1,-1,-1,-1,-1,-1,-1,-1,-1,-1,-1,-1,-1],"loss_changes":[1.4899144E0,0E0,4.4847548E-1,8.9700633E-1,4.2095566E-1,3.6112565E-1,3.4434032E-1,4.1471434E-1,1.7213294E-1,8.288179E-2,0E0,0E0,3.3397824E-2,4.763311E-1,9.8433495E-2,1.1297926E-1,1.0031864E-1,0E0,5.854029E-3,1.9796024E-1,0E0,1.4426623E-1,1.9507962E-1,3.7532532E-1,0E0,1.1440351E-1,0E0,0E0,0E0,0E0,0E0,0E0,0E0,0E0,0E0,0E0,0E0,0E0,0E0,0E0,0E0],"parents":[2147483647,0,0,2,2,3,3,4,4,5,5,6,6,7,7,8,8,9,9,12,12,13,13,14,14,15,15,16,16,18,18,19,19,21,21,22,22,23,23,25,25],"right_children":[2,-1,4,6,8,10,12,14,16,18,-1,-1,20,22,24,26,28,-1,30,32,-1,34,36,38,-1,40,-1,-1,-1,-1,-1,-1,-1,-1,-1,-1,-1,-1,-1,-1,-1],"split_conditions":[1E0,-5.0146677E-2,2E0,4E0,7E0,1E0,6E0,3E0,9E0,1E0,2.836286E-2,-3.6338206E-2,1E0,5E0,9E0,7E0,1E1,-1.4242478E-2,3E0,7E0,5.614354E-3,1E0,1E1,6E0,-3.23406E-2,4E0,-2.0670881E-2,2.3148792E-2,-5.1676217E-3,2.1892467E-3,8.321831E-3,7.087366E-3,-3.0571153E-2,-9.273183E-3,1.0396677E-2,-2.1303827E-2,9.83117E-4,-2.8627494E-2,-7.785243E-3,-1.4383696E-2,9.948399E-3],"split_indices":[4,0,2,1,1,2,1,1,2,1,0,0,0,2,2,2,2,0,1,1,0,1,2,2,0,2,0,0,0,0,0,0,0,0,0,0,0,0,0,0,0],"split_type":[0,0,0,0,0,0,0,0,0,0,0,0,0,0,0,0,0,0,0,0,0,0,0,0,0,0,0,0,0,0,0,0,0,0,0,0,0,0,0,0,0],"sum_hessian":[1.400016E2,9.6439E0,1.303577E2,2.9064787E1,1.01292915E2,1.7198421E1,1.1866364E1,8.764834E1,1.3644575E1,9.109977E0,8.088446E0,5.546169E0,6.320195E0,4.0733215E1,4.6915123E1,8.917709E0,4.726866E0,1.9402792E0,7.1696973E0,4.2188225E0,2.1013727E0,1.5704856E1,2.502836E1,3.6095207E1,1.0819916E1,6.4752035E0,2.4425063E0,3.4201722E0,1.3066933E0,4.333632E0,2.836065E0,2.988184E0,1.2306387E0,4.4695983E0,1.1235257E1,2.0319118E1,4.709242E0,1.9289621E1,1.6805584E1,1.9924045E0,4.482799E0],"tree_param":{"num_deleted":"0","num_feature":"5","num_nodes":"41","size_leaf_vector":"1"}},{"base_weights":[2.722848E-1,4.6423054E-1,-2.6581332E-2,-5.1902987E-2,6.121306E-1,-5.5673737E-2,5.929047E-1,-4.7297694E-2,6.778773E-2,-3.8985066E-2,6.68535E-2],"categories":[],"categories_nodes":[],"categories_segments":[],"categories_sizes":[],"default_left":[0,0,0,0,0,0,0,0,0,0,0],"id":57,"left_children":[1,3,5,-1,7,-1,9,-1,-1,-1,-1],"loss_changes":[1.097683E1,1.7250713E1,2.5189617E1,0E0,7.574192E0,0E0,2.8910418E0,0E0,0E0,0E0,0E0],"parents":[2147483647,0,0,1,1,2,2,4,4,6,6],"right_children":[2,4,6,-1,8,-1,10,-1,-1,-1,-1],"split_conditions":[4E0,1E0,6E0,-5.1902987E-2,1E0,-5.5673737E-2,1E0,-4.7297694E-2,6.778773E-2,-3.8985066E-2,6.68535E-2],"split_indices":[3,3,3,0,4,0,4,0,0,0,0],"split_type":[0,0,0,0,0,0,0,0,0,0,0],"sum_hessian":[1.9013191E2,1.15438576E2,7.469333E1,1.4765583E1,1.00673E2,4.030317E1,3.4390156E1,5.397454E0,9.527554E1,2.1605723E0,3.2229584E1],"tree_param":{"num_deleted":"0","num_feature":"5","num_nodes":"11","size_leaf_vector":"1"}},{"base_weights":[-7.281173E-2,5.6565024E-2,-2.0208336E-1,-8.0476455E-2,-2.1711613E-1,-1.4570889E-1,2.9549258E-2,-3.287837E-2,-1.9248556E-1,5.7828273E-3,-1.9752769E-1,1.5789881E-2,-6.437448E-3,-2.0810114E-1,-1.5411691E-1,-2.7097717E-2,-9.294006E-2,-1.7202015E-1,-2.4289815E-1,-1.0124481E-1,-2.8211278E-1,-2.3985587E-3,-1.3801018E-2,-2.1929994E-2,1.519308E-3,-1.6926823E-2,-3.2425523E-2,-1.5658775E-2,1.4195913E-2,-4.2284604E-2,-8.098463E-3],"categories":[],"categories_nodes":[],"categories_segments":[],"categories_sizes":[],"default_left":[0,0,0,0,0,0,0,0,0,0,0,0,0,0,0,0,0,0,0,0,0,0,0,0,0,0,0,0,0,0,0],"id":58,"left_children":[1,-1,3,5,7,9,11,-1,13,-1,15,-1,-1,17,19,-1,21,23,25,27,29,-1,-1,-1,-1,-1,-1,-1,-1,-1,-1],"loss_changes":[1.1273039E1,0E0,1.8941498E-1,1.0507303E-1,2.1212006E-1,1.061638E-1,8.318384E-2,0E0,1.85256E-2,0E0,3.1556487E-2,0E0,0E0,2.9989481E-2,1.6283876E-1,0E0,1.0890059E-2,2.8208345E-1,1.04899526E-1,3.1261778E-1,1.8393338E-1,0E0,0E0,0E0,0E0,0E0,0E0,0E0,0E0,0E0,0E0],"parents":[2147483647,0,0,2,2,3,3,4,4,5,5,6,6,8,8,10,10,13,13,14,14,16,16,17,17,18,18,19,19,20,20],"right_children":[2,-1,4,6,8,10,12,-1,14,-1,16,-1,-1,18,20,-1,22,24,26,28,30,-1,-1,-1,-1,-1,-1,-1,-1,-1,-1],"split_conditions":[1E0,5.6565024E-2,1E0,5E0,3E0,1E0,6E0,-3.287837E-2,5E0,5.7828273E-3,3E0,1.5789881E-2,-6.437448E-3,1E0,9E0,-2.7097717E-2,4E0,9E0,8E0,8E0,1E1,-2.3985587E-3,-1.3801018E-2,-2.1929994E-2,1.519308E-3,-1.6926823E-2,-3.2425523E-2,-1.5658775E-2,1.4195913E-2,-4.2284604E-2,-8.098463E-3],"split_indices":[4,0,2,1,2,1,1,0,1,0,1,0,0,0,2,0,1,2,2,2,2,0,0,0,0,0,0,0,0,0,0],"split_type":[0,0,0,0,0,0,0,0,0,0,0,0,0,0,0,0,0,0,0,0,0,0,0,0,0,0,0,0,0,0,0],"sum_hessian":[1.3419995E2,2.2028303E1,1.12171646E2,1.3039847E1,9.9131805E1,7.982712E0,5.057135E0,1.5682686E1,8.344912E1,1.5963794E0,6.386332E0,1.8491198E0,3.2080154E0,5.616634E1,2.7282778E1,2.8170629E0,3.5692692E0,3.0492361E1,2.5673977E1,2.0574806E1,6.707972E0,2.0164342E0,1.5528351E0,2.4207487E1,6.284875E0,1.5094073E1,1.0579904E1,1.705089E1,3.5239158E0,3.2979567E0,3.4100156E0],"tree_param":{"num_deleted":"0","num_feature":"5","num_nodes":"31","size_leaf_vector":"1"}},{"base_weights":[-1.789313E-1,-5.3721387E-2,1.02564E-1,6.952836E-2,-5.45609E-2],"categories":[],"categories_nodes":[],"categories_segments":[],"categories_sizes":[],"default_left":[0,0,0,0,0],"id":59,"left_children":[1,-1,3,-1,-1],"loss_changes":[1.3366453E1,0E0,2.909827E1,0E0,0E0],"parents":[2147483647,0,0,2,2],"right_children":[2,-1,4,-1,-1],"split_conditions":[4E0,-5.3721387E-2,5E0,6.952836E-2,-5.45609E-2],"split_indices":[3,0,3,0,0],"split_type":[0,0,0,0,0],"sum_hessian":[1.3098526E2,5.723239E1,7.375288E1,3.848642E1,3.5266457E1],"tree_param":{"num_deleted":"0","num_feature":"5","num_nodes":"5","size_leaf_vector":"1"}},{"base_weights":[-1.5503429E-1,-5.4782506E-2,3.6582777E-1,7.434597E-1,-5.2627355E-2,-3.4524128E-2,7.8925155E-2],"categories":[],"categories_nodes":[],"categories_segments":[],"categories_sizes":[],"default_left":[0,0,0,0,0,0,0],"id":60,"left_children":[1,-1,3,5,-1,-1,-1],"loss_changes":[2.9177877E1,0E0,2.110674E1,2.4469738E0,0E0,0E0,0E0],"parents":[2147483647,0,0,2,2,3,3],"right_children":[2,-1,4,6,-1,-1,-1],"split_conditions":[5E0,-5.4782506E-2,6E0,1E0,-5.2627355E-2,-3.4524128E-2,7.8925155E-2],"split_indices":[3,0,3,4,0,0,0],"split_type":[0,0,0,0,0,0,0],"sum_hessian":[1.4063692E2,8.014584E1,6.0491077E1,4.2617466E1,1.7873613E1,1.4562322E0,4.1161232E1],"tree_param":{"num_deleted":"0","num_feature":"5","num_nodes":"7","size_leaf_vector":"1"}},{"base_weights":[2.6720622E-1,-5.031706E-2,3.145655E-2],"categories":[],"categories_nodes":[],"categories_segments":[],"categories_sizes":[],"default_left":[0,0,0],"id":61,"left_children":[1,-1,-1],"loss_changes":[6.965008E0,0E0,0E0],"parents":[2147483647,0,0],"right_children":[2,-1,-1],"split_conditions":[1E0,-5.031706E-2,3.145655E-2],"split_indices":[4,0,0],"split_type":[0,0,0],"sum_hessian":[1.8556499E2,1.018961E1,1.7537538E2],"tree_param":{"num_deleted":"0","num_feature":"5","num_nodes":"3","size_leaf_vector":"1"}},{"base_weights":[-6.2302027E-2,6.709785E-2,-3.034288E-1,5.351291E-1,-5.430753E-2,6.323371E-2,3.654649E-1,-3.980934E-2,6.2797956E-2],"categories":[],"categories_nodes":[],"categories_segments":[],"categories_sizes":[],"default_left":[0,0,0,0,0,0,0,0,0],"id":62,"left_children":[1,-1,3,5,-1,-1,7,-1,-1],"loss_changes":[2.4294462E1,0E0,2.10339E1,1.5559578E-1,0E0,0E0,2.4368002E0,0E0,0E0],"parents":[2147483647,0,0,2,2,3,3,6,6],"right_children":[2,-1,4,6,-1,-1,8,-1,-1],"split_conditions":[1E0,6.709785E-2,1E0,4E0,-5.430753E-2,6.323371E-2,5E0,-3.980934E-2,6.2797956E-2],"split_indices":[3,0,4,3,0,0,3,0,0],"split_type":[0,0,0,0,0,0,0,0,0],"sum_hessian":[1.3525009E2,3.302784E1,1.0222226E2,2.2446321E1,7.977593E1,1.2536579E1,9.909743E0,2.403215E0,7.506529E0],"tree_param":{"num_deleted":"0","num_feature":"5","num_nodes":"9","size_leaf_vector":"1"}},{"base_weights":[-1.6784129E-1,-5.3202193E-2,9.830787E-2,6.746968E-2,-5.4100137E-2],"categories":[],"categories_nodes":[],"categories_segments":[],"categories_sizes":[],"default_left":[0,0,0,0,0],"id":63,"left_children":[1,-1,3,-1,-1],"loss_changes":[1.1737395E1,0E0,2.6342487E1,0E0,0E0],"parents":[2147483647,0,0,2,2],"right_children":[2,-1,4,-1,-1],"split_conditions":[4E0,-5.3202193E-2,5E0,6.746968E-2,-5.4100137E-2],"split_indices":[3,0,3,0,0],"split_type":[0,0,0,0,0],"sum_hessian":[1.1955638E2,5.005944E1,6.949695E1,3.6517822E1,3.2979122E1],"tree_param":{"num_deleted":"0","num_feature":"5","num_nodes":"5","size_leaf_vector":"1"}},{"base_weights":[-1.4841884E-1,-4.829632E-2,-1.22129366E-1,-3.997463E-2,-1.4251727E-1,6.8889566E-2,-1.7905211E-1,-1.551954E-1,-5.1192585E-2,-7.9863474E-2,1.8518393E-1,-2.6406461E-2,-5.9970938E-2,-1.3436504E-1,-3.0120614E-1,-3.463068E-2,2.0528832E-2,-1.6197572E-2,3.585804E-2,2.1380633E-2,3.1873424E-2,-1.4745319E-2,1.9165315E-2,-9.812449E-2,-1.7719023E-1,-1.8080367E-1,-4.1826535E-2,2.1561844E-2,-3.7156645E-2,-8.143827E-3,1.33944405E-2,-3.7712585E-3,8.817708E-3,9.908968E-3,-7.5003947E-3,-7.2210366E-3,-1.9384786E-2,-3.256931E-2,-1.461179E-2,-2.8625173E-2,4.3305815E-3,-1.334197E-2,2.8167376E-3],"categories":[],"categories_nodes":[],"categories_segments":[],"categories_sizes":[],"default_left":[0,0,0,0,0,0,0,0,0,0,0,0,0,0,0,0,0,0,0,0,0,0,0,0,0,0,0,0,0,0,0,0,0,0,0,0,0,0,0,0,0,0,0],"id":64,"left_children":[1,-1,3,5,7,9,11,13,15,17,19,-1,21,23,25,-1,27,-1,29,31,-1,-1,33,35,37,39,-1,-1,41,-1,-1,-1,-1,-1,-1,-1,-1,-1,-1,-1,-1,-1,-1],"loss_changes":[1.0958798E0,0E0,2.0045865E-1,4.0388787E-1,1.0577619E-1,2.7822822E-1,1.019268E-1,2.2034621E-1,2.9211745E-1,7.593813E-2,1.8674389E-1,0E0,4.5328576E-2,1.0188973E-1,6.3925564E-2,0E0,1.4054523E-1,0E0,5.5571787E-2,2.324226E-2,0E0,0E0,3.8353596E-2,9.481987E-2,1.09229684E-1,1.6936654E-1,0E0,0E0,6.627748E-2,0E0,0E0,0E0,0E0,0E0,0E0,0E0,0E0,0E0,0E0,0E0,0E0,0E0,0E0],"parents":[2147483647,0,0,2,2,3,3,4,4,5,5,6,6,7,7,8,8,9,9,10,10,12,12,13,13,14,14,16,16,18,18,19,19,22,22,23,23,24,24,25,25,28,28],"right_children":[2,-1,4,6,8,10,12,14,16,18,20,-1,22,24,26,-1,28,-1,30,32,-1,-1,34,36,38,40,-1,-1,42,-1,-1,-1,-1,-1,-1,-1,-1,-1,-1,-1,-1,-1,-1],"split_conditions":[1E0,-4.829632E-2,2E0,4E0,7E0,2E0,1E0,6E0,4E0,1E0,1E0,-2.6406461E-2,6E0,1E0,8E0,-3.463068E-2,5E0,-1.6197572E-2,1E0,1E0,3.1873424E-2,-1.4745319E-2,7E0,9E0,3E0,6E0,-4.1826535E-2,2.1561844E-2,8E0,-8.143827E-3,1.33944405E-2,-3.7712585E-3,8.817708E-3,9.908968E-3,-7.5003947E-3,-7.2210366E-3,-1.9384786E-2,-3.256931E-2,-1.461179E-2,-2.8625173E-2,4.3305815E-3,-1.334197E-2,2.8167376E-3],"split_indices":[4,0,2,1,1,1,2,1,2,0,2,0,1,0,2,0,2,0,2,0,0,0,1,2,2,2,0,0,2,0,0,0,0,0,0,0,0,0,0,0,0,0,0],"split_type":[0,0,0,0,0,0,0,0,0,0,0,0,0,0,0,0,0,0,0,0,0,0,0,0,0,0,0,0,0,0,0,0,0,0,0,0,0,0,0,0,0,0,0],"sum_hessian":[1.3030916E2,8.228403E0,1.2208076E2,2.4861202E1,9.721955E1,1.4228433E1,1.063277E1,8.475418E1,1.2465373E1,6.3804336E0,7.8479986E0,5.493455E0,5.139315E0,7.585299E1,8.901192E0,1.6886281E0,1.0776745E1,3.498388E0,2.8820453E0,4.0458016E0,3.8021972E0,2.030922E0,3.108393E0,4.2867718E1,3.298527E1,5.6422977E0,3.2588944E0,1.8345507E0,8.942194E0,1.3897935E0,1.4922519E0,2.3777094E0,1.6680923E0,1.6531028E0,1.4552902E0,3.5115623E1,7.752095E0,4.0668674E0,2.8918404E1,3.6483772E0,1.9939206E0,3.1936E0,5.7485943E0],"tree_param":{"num_deleted":"0","num_feature":"5","num_nodes":"43","size_leaf_vector":"1"}},{"base_weights":[2.612251E-1,-5.0026037E-2,3.1271002E-1,2.8629702E-1,3.404059E-1,3.0432764E-1,1.8937041E-1,3.62293E-1,2.4684088E-2,2.6961926E-1,3.6090035E-2,9.867912E-2,2.2043586E-1,3.243169E-2,4.2732698E-1,3.117737E-1,1.9071676E-1,1.5970822E-2,-9.357078E-3,3.0425558E-2,1.2587748E-1,4.9383428E-2,2.888366E-1,4.02214E-2,2.6162535E-2,9.73181E-3,2.6775649E-2,4.50714E-4,1.562572E-2,4.1795902E-2,1.9123476E-2],"categories":[],"categories_nodes":[],"categories_segments":[],"categories_sizes":[],"default_left":[0,0,0,0,0,0,0,0,0,0,0,0,0,0,0,0,0,0,0,0,0,0,0,0,0,0,0,0,0,0,0],"id":65,"left_children":[1,-1,3,5,7,9,11,13,-1,15,-1,17,19,-1,21,23,25,-1,-1,-1,27,-1,29,-1,-1,-1,-1,-1,-1,-1,-1],"loss_changes":[7.0430927E0,0E0,2.3353577E-2,1.0109663E-1,6.4826965E-2,4.982376E-2,2.5840282E-2,6.8969727E-3,0E0,1.081512E-1,0E0,8.675488E-2,5.5005074E-2,0E0,2.8391361E-2,3.6592484E-2,1.1873776E-1,0E0,0E0,0E0,2.5981382E-2,0E0,2.635169E-2,0E0,0E0,0E0,0E0,0E0,0E0,0E0,0E0],"parents":[2147483647,0,0,2,2,3,3,4,4,5,5,6,6,7,7,9,9,11,11,12,12,14,14,15,15,16,16,20,20,22,22],"right_children":[2,-1,4,6,8,10,12,14,-1,16,-1,18,20,-1,22,24,26,-1,-1,-1,28,-1,30,-1,-1,-1,-1,-1,-1,-1,-1],"split_conditions":[1E0,-5.0026037E-2,1E0,9E0,6E0,5E0,3E0,4E0,2.4684088E-2,3E0,3.6090035E-2,2E0,5E0,3.243169E-2,5E0,2E0,4E0,1.5970822E-2,-9.357078E-3,3.0425558E-2,6E0,4.9383428E-2,2E0,4.02214E-2,2.6162535E-2,9.73181E-3,2.6775649E-2,4.50714E-4,1.562572E-2,4.1795902E-2,1.9123476E-2],"split_indices":[4,0,0,2,1,1,1,1,0,1,0,1,1,0,1,2,1,0,0,0,1,0,2,0,0,0,0,0,0,0,0],"split_type":[0,0,0,0,0,0,0,0,0,0,0,0,0,0,0,0,0,0,0,0,0,0,0,0,0,0,0,0,0,0,0],"sum_hessian":[1.7465756E2,1.0508935E1,1.6414862E2,8.9823296E1,7.432533E1,7.393068E1,1.589261E1,5.790733E1,1.6418005E1,4.9393036E1,2.4537647E1,5.1205015E0,1.0772108E1,4.03387E1,1.756863E1,3.0269741E1,1.9123295E1,4.015167E0,1.105334E0,4.5347266E0,6.237382E0,1.0135443E1,7.433187E0,8.293075E0,2.1976665E1,9.666902E0,9.456393E0,1.4785943E0,4.7587876E0,1.7869093E0,5.646278E0],"tree_param":{"num_deleted":"0","num_feature":"5","num_nodes":"31","size_leaf_vector":"1"}},{"base_weights":[-5.892395E-2,6.550276E-2,-3.203442E-1,4.8636684E-1,-5.386739E-2,6.06873E-2,2.9600778E-1,-4.034199E-2,5.9752803E-2],"categories":[],"categories_nodes":[],"categories_segments":[],"categories_sizes":[],"default_left":[0,0,0,0,0,0,0,0,0],"id":66,"left_children":[1,-1,3,5,-1,-1,7,-1,-1],"loss_changes":[2.42472E1,0E0,1.6984097E1,2.9630518E-1,0E0,0E0,2.3489308E0,0E0,0E0],"parents":[2147483647,0,0,2,2,3,3,6,6],"right_children":[2,-1,4,6,-1,-1,8,-1,-1],"split_conditions":[1E0,6.550276E-2,1E0,4E0,-5.386739E-2,6.06873E-2,5E0,-4.034199E-2,5.9752803E-2],"split_indices":[3,0,4,3,0,0,3,0,0],"split_type":[0,0,0,0,0,0,0,0,0],"sum_hessian":[1.2778902E2,3.384661E1,9.3942406E1,1.9747873E1,7.4194534E1,1.0752804E1,8.9950695E0,2.6078238E0,6.387245E0],"tree_param":{"num_deleted":"0","num_feature":"5","num_nodes":"9","size_leaf_vector":"1"}},{"base_weights":[-1.677333E-1,-5.2858025E-2,9.91611E-2,6.5807484E-2,-5.352809E-2],"categories":[],"categories_nodes":[],"categories_segments":[],"categories_sizes":[],"default_left":[0,0,0,0,0],"id":67,"left_children":[1,-1,3,-1,-1],"loss_changes":[1.1360274E1,0E0,2.4583824E1,0E0,0E0],"parents":[2147483647,0,0,2,2],"right_children":[2,-1,4,-1,-1],"split_conditions":[4E0,-5.2858025E-2,5E0,6.5807484E-2,-5.352809E-2],"split_indices":[3,0,3,0,0],"split_type":[0,0,0,0,0],"sum_hessian":[1.1641345E2,4.9078194E1,6.733526E1,3.577867E1,3.1556587E1],"tree_param":{"num_deleted":"0","num_feature":"5","num_nodes":"5","size_leaf_vector":"1"}},{"base_weights":[-1.3348234E-1,-5.4053288E-2,3.722728E-1,7.0871465E-2,-5.1612016E-2],"categories":[],"categories_nodes":[],"categories_segments":[],"categories_sizes":[],"default_left":[0,0,0,0,0],"id":68,"left_children":[1,-1,3,-1,-1],"loss_changes":[2.634951E1,0E0,1.7472103E1,0E0,0E0],"parents":[2147483647,0,0,2,2],"right_children":[2,-1,4,-1,-1],"split_conditions":[5E0,-5.4053288E-2,6E0,7.0871465E-2,-5.1612016E-2],"split_indices":[3,0,3,0,0],"split_type":[0,0,0,0,0],"sum_hessian":[1.2601488E2,6.978254E1,5.6232346E1,4.0932945E1,1.5299398E1],"tree_param":{"num_deleted":"0","num_feature":"5","num_nodes":"5","size_leaf_vector":"1"}},{"base_weights":[2.4581255E-1,-4.8338E-2,2.851217E-1,3.0426887E-1,2.2276397E-1,2.659395E-1,3.374011E-1,1.6331677E-1,2.6900867E-1,2.978385E-2,1.4479382E-1,4.2665955E-2,2.9272621E-2,1.2941445E-1,2.1495253E-1,1.3637194E-1,2.9731432E-1,2.2386016E-1,-1.1417392E-2,-4.9605556E-2,2.0008408E-1,3.765744E-2,1.0231426E-1,2.2827981E-2,-1.0802219E-2,3.162174E-2,9.426095E-3,1.0221488E-2,2.746599E-2,1.5806701E-2,-2.4272276E-2,2.1669576E-2,4.1635334E-3,2.0120367E-2,-7.0720294E-4],"categories":[],"categories_nodes":[],"categories_segments":[],"categories_sizes":[],"default_left":[0,0,0,0,0,0,0,0,0,0,0,0,0,0,0,0,0,0,0,0,0,0,0,0,0,0,0,0,0,0,0,0,0,0,0],"id":69,"left_children":[1,-1,3,5,7,9,11,13,15,-1,17,-1,-1,19,21,23,25,27,-1,29,31,-1,33,-1,-1,-1,-1,-1,-1,-1,-1,-1,-1,-1,-1],"loss_changes":[5.01663E0,0E0,1.2579727E-1,6.432724E-2,7.103634E-2,1.9246912E-1,1.1972332E-1,8.670211E-3,4.1965127E-2,0E0,3.2558748E-1,0E0,0E0,2.0090058E-1,8.432141E-2,1.5297332E-1,3.646052E-2,4.338211E-2,0E0,2.4185042E-1,1.9987702E-2,0E0,5.9292488E-2,0E0,0E0,0E0,0E0,0E0,0E0,0E0,0E0,0E0,0E0,0E0,0E0],"parents":[2147483647,0,0,2,2,3,3,4,4,5,5,6,6,7,7,8,8,10,10,13,13,14,14,15,15,16,16,17,17,19,19,20,20,22,22],"right_children":[2,-1,4,6,8,10,12,14,16,-1,18,-1,-1,20,22,24,26,28,-1,30,32,-1,34,-1,-1,-1,-1,-1,-1,-1,-1,-1,-1,-1,-1],"split_conditions":[1E0,-4.8338E-2,8E0,4E0,1E0,3E0,5E0,6E0,2E0,2.978385E-2,5E0,4.2665955E-2,2.9272621E-2,9E0,9E0,1E1,7E0,2E0,-1.1417392E-2,3E0,5E0,3.765744E-2,7E0,2.2827981E-2,-1.0802219E-2,3.162174E-2,9.426095E-3,1.0221488E-2,2.746599E-2,1.5806701E-2,-2.4272276E-2,2.1669576E-2,4.1635334E-3,2.0120367E-2,-7.0720294E-4],"split_indices":[4,0,2,1,0,1,1,1,1,0,2,0,0,2,2,2,1,2,0,1,1,0,1,0,0,0,0,0,0,0,0,0,0,0,0],"split_type":[0,0,0,0,0,0,0,0,0,0,0,0,0,0,0,0,0,0,0,0,0,0,0,0,0,0,0,0,0,0,0,0,0,0,0],"sum_hessian":[1.6920712E2,8.077171E0,1.6112996E2,1.203092E2,4.0820763E1,5.9964836E1,6.0344357E1,1.9843578E1,2.0977184E1,4.6311882E1,1.3652955E1,1.7276447E1,4.306791E1,1.4095342E1,5.7482357E0,4.712559E0,1.6264626E1,1.056338E1,3.0895746E0,4.0737634E0,1.0021579E1,1.3984358E0,4.3498E0,3.4725816E0,1.2399777E0,1.4369589E1,1.8950361E0,3.9991393E0,6.5642414E0,2.0503616E0,2.0234017E0,8.737894E0,1.2836845E0,1.8436673E0,2.5061326E0],"tree_param":{"num_deleted":"0","num_feature":"5","num_nodes":"35","size_leaf_vector":"1"}},{"base_weights":[-5.209556E-2,6.4275004E-2,-3.285531E-1,4.799529E-1,-5.3458225E-2,5.8713973E-2,2.8383884E-1,-3.741461E-2,5.624627E-2],"categories":[],"categories_nodes":[],"categories_segments":[],"categories_sizes":[],"default_left":[0,0,0,0,0,0,0,0,0],"id":70,"left_children":[1,-1,3,5,-1,-1,7,-1,-1],"loss_changes":[2.3376486E1,0E0,1.4737133E1,2.1551847E-1,0E0,0E0,1.7432443E0,0E0,0E0],"parents":[2147483647,0,0,2,2,3,3,6,6],"right_children":[2,-1,4,6,-1,-1,8,-1,-1],"split_conditions":[1E0,6.4275004E-2,1E0,4E0,-5.3458225E-2,5.8713973E-2,5E0,-3.741461E-2,5.624627E-2],"split_indices":[3,0,4,3,0,0,3,0,0],"split_type":[0,0,0,0,0,0,0,0,0],"sum_hessian":[1.19592766E2,3.3662025E1,8.593074E1,1.718059E1,6.875015E1,9.819718E0,7.3608713E0,2.0877361E0,5.273135E0],"tree_param":{"num_deleted":"0","num_feature":"5","num_nodes":"9","size_leaf_vector":"1"}},{"base_weights":[-1.6364324E-1,-5.2485414E-2,1.0647987E-1,6.4372145E-2,-5.3067714E-2],"categories":[],"categories_nodes":[],"categories_segments":[],"categories_sizes":[],"default_left":[0,0,0,0,0],"id":71,"left_children":[1,-1,3,-1,-1],"loss_changes":[1.0760189E1,0E0,2.2112083E1,0E0,0E0],"parents":[2147483647,0,0,2,2],"right_children":[2,-1,4,-1,-1],"split_conditions":[4E0,-5.2485414E-2,5E0,6.4372145E-2,-5.3067714E-2],"split_indices":[3,0,3,0,0],"split_type":[0,0,0,0,0],"sum_hessian":[1.08707375E2,4.610815E1,6.2599224E1,3.395693E1,2.8642296E1],"tree_param":{"num_deleted":"0","num_feature":"5","num_nodes":"5","size_leaf_vector":"1"}},{"base_weights":[-1.118993E-1,-5.3616326E-2,3.835543E-1,6.999451E-1,-5.1130395E-2,-2.9853592E-2,7.337512E-2],"categories":[],"categories_nodes":[],"categories_segments":[],"categories_sizes":[],"default_left":[0,0,0,0,0,0,0],"id":72,"left_children":[1,-1,3,5,-1,-1,-1],"loss_changes":[2.5727478E1,0E0,1.6380352E1,1.6445599E0,0E0,0E0,0E0],"parents":[2147483647,0,0,2,2,3,3],"right_children":[2,-1,4,6,-1,-1,-1],"split_conditions":[5E0,-5.3616326E-2,6E0,1E0,-5.1130395E-2,-2.9853592E-2,7.337512E-2],"split_indices":[3,0,3,4,0,0,0],"split_type":[0,0,0,0,0,0,0],"sum_hessian":[1.20415085E2,6.482357E1,5.559151E1,4.123135E1,1.4360159E1,1.0938251E0,4.0137527E1],"tree_param":{"num_deleted":"0","num_feature":"5","num_nodes":"7","size_leaf_vector":"1"}},{"base_weights":[2.2172233E-1,-4.815033E-2,2.6266444E-1,3.5408337E-2,2.494944E-1,2.243821E-1,2.735473E-1,4.02086E-2,2.3882857E-1,3.331407E-1,2.4316514E-1,1.301923E-1,-1.559326E-2,1.680482E-1,2.525851E-1,2.500468E-1,4.167551E-2,1.6535257E-1,2.5528485E-1,2.3359207E-2,-4.171392E-3,2.5824128E-2,1.12263365E-2,1.4872867E-2,2.8070057E-2,3.1285267E-2,4.366428E-3,2.9423181E-2,2.8129537E-3,1.7976915E-2,2.8199261E-2],"categories":[],"categories_nodes":[],"categories_segments":[],"categories_sizes":[],"default_left":[0,0,0,0,0,0,0,0,0,0,0,0,0,0,0,0,0,0,0,0,0,0,0,0,0,0,0,0,0,0,0],"id":73,"left_children":[1,-1,3,-1,5,7,9,11,13,15,17,19,-1,21,23,25,-1,27,29,-1,-1,-1,-1,-1,-1,-1,-1,-1,-1,-1,-1],"loss_changes":[4.830364E0,0E0,9.832001E-2,0E0,2.2519112E-2,1.8599987E-1,3.9181232E-2,1.35899E-1,2.3733139E-2,3.275299E-2,2.7434826E-3,9.9238135E-2,0E0,4.169044E-2,1.1861396E-1,1.4690113E-1,0E0,1.5553758E-1,2.8783798E-2,0E0,0E0,0E0,0E0,0E0,0E0,0E0,0E0,0E0,0E0,0E0,0E0],"parents":[2147483647,0,0,2,2,4,4,5,5,6,6,7,7,8,8,9,9,10,10,11,11,13,13,14,14,15,15,17,17,18,18],"right_children":[2,-1,4,-1,6,8,10,12,14,16,18,20,-1,22,24,26,-1,28,30,-1,-1,-1,-1,-1,-1,-1,-1,-1,-1,-1,-1],"split_conditions":[1E0,-4.815033E-2,1E0,3.5408337E-2,4E0,2E0,5E0,3E0,4E0,1E0,3E0,1E0,-1.559326E-2,1E0,1E0,8E0,4.167551E-2,6E0,6E0,2.3359207E-2,-4.171392E-3,2.5824128E-2,1.12263365E-2,1.4872867E-2,2.8070057E-2,3.1285267E-2,4.366428E-3,2.9423181E-2,2.8129537E-3,1.7976915E-2,2.8199261E-2],"split_indices":[4,0,2,0,1,2,1,1,2,0,2,0,0,1,1,2,0,1,1,0,0,0,0,0,0,0,0,0,0,0,0],"split_type":[0,0,0,0,0,0,0,0,0,0,0,0,0,0,0,0,0,0,0,0,0,0,0,0,0,0,0,0,0,0,0],"sum_hessian":[1.6237747E2,8.341555E0,1.5403592E2,1.6136957E1,1.3789896E2,7.251684E1,6.538212E1,5.5496306E0,6.696721E1,1.871276E1,4.666936E1,4.0348115E0,1.5148188E0,1.3048062E1,5.3919144E1,1.1387057E1,7.3257027E0,8.262783E0,3.8406578E1,2.2953491E0,1.7394626E0,3.5993645E0,9.448697E0,1.2827003E1,4.109214E1,8.334754E0,3.0523033E0,3.6709023E0,4.591881E0,1.2054285E1,2.6352293E1],"tree_param":{"num_deleted":"0","num_feature":"5","num_nodes":"31","size_leaf_vector":"1"}},{"base_weights":[-4.3828737E-2,5.1642198E-2,-1.7370014E-1,-2.3301941E-1,-1.2104014E-1,-9.756271E-2,-2.7528873E-1,-6.886054E-2,-1.8226604E-1,-1.715268E-2,-5.3946387E-2,-3.130165E-2,-1.9233969E-1,-1.0246722E-1,6.948903E-2,-9.003984E-2,-2.4144341E-1,1.5663728E-2,-1.5942425E-2,-3.2969986E-3,-2.3238677E-1,-4.9374726E-2,-1.8705454E-1,-3.4105096E-3,1.4837784E-1,3.8855776E-2,-2.5205512E-2,-2.988035E-1,-7.748253E-3,-4.3061012E-3,1.0965128E-2,-1.3583379E-2,-3.775562E-2,-1.1703842E-2,1.5728382E-2,-1.0378706E-2,-3.3885002E-2,4.557538E-3,1.840736E-2,-4.703989E-3,1.0601729E-2,-7.192058E-3,-3.517928E-2],"categories":[],"categories_nodes":[],"categories_segments":[],"categories_sizes":[],"default_left":[0,0,0,0,0,0,0,0,0,0,0,0,0,0,0,0,0,0,0,0,0,0,0,0,0,0,0,0,0,0,0,0,0,0,0,0,0,0,0,0,0,0,0],"id":74,"left_children":[1,-1,3,5,7,9,11,13,15,-1,17,-1,19,21,23,25,27,29,-1,-1,31,33,35,-1,37,39,-1,41,-1,-1,-1,-1,-1,-1,-1,-1,-1,-1,-1,-1,-1,-1,-1],"loss_changes":[8.302521E0,0E0,2.6037216E-1,2.15698E-1,1.5044028E-1,2.8247222E-2,3.911972E-2,1.4265865E-1,1.0306299E-1,0E0,6.689733E-2,0E0,7.2221786E-2,9.7910255E-2,5.649072E-2,2.297456E-1,1.0225797E-1,3.891148E-2,0E0,0E0,8.660346E-2,2.4237218E-1,7.658687E-2,0E0,5.4065734E-3,4.382468E-2,0E0,8.925533E-2,0E0,0E0,0E0,0E0,0E0,0E0,0E0,0E0,0E0,0E0,0E0,0E0,0E0,0E0,0E0],"parents":[2147483647,0,0,2,2,3,3,4,4,5,5,6,6,7,7,8,8,10,10,12,12,13,13,14,14,15,15,16,16,17,17,20,20,21,21,22,22,24,24,25,25,27,27],"right_children":[2,-1,4,6,8,10,12,14,16,-1,18,-1,20,22,24,26,28,30,-1,-1,32,34,36,-1,38,40,-1,42,-1,-1,-1,-1,-1,-1,-1,-1,-1,-1,-1,-1,-1,-1,-1],"split_conditions":[1E0,5.1642198E-2,5E0,1E0,1E0,3E0,5E0,1E1,8E0,-1.715268E-2,6E0,-3.130165E-2,2E0,5E0,4E0,4E0,6E0,5E0,-1.5942425E-2,-3.2969986E-3,7E0,9E0,9E0,-3.4105096E-3,6E0,2E0,-2.5205512E-2,1E0,-7.748253E-3,-4.3061012E-3,1.0965128E-2,-1.3583379E-2,-3.775562E-2,-1.1703842E-2,1.5728382E-2,-1.0378706E-2,-3.3885002E-2,4.557538E-3,1.840736E-2,-4.703989E-3,1.0601729E-2,-7.192058E-3,-3.517928E-2],"split_indices":[4,0,2,2,0,1,1,2,2,0,1,0,2,1,1,1,1,1,0,0,1,2,2,0,1,1,0,1,0,0,0,0,0,0,0,0,0,0,0,0,0,0,0],"split_type":[0,0,0,0,0,0,0,0,0,0,0,0,0,0,0,0,0,0,0,0,0,0,0,0,0,0,0,0,0,0,0,0,0,0,0,0,0,0,0,0,0,0,0],"sum_hessian":[1.1187462E2,2.0493132E1,9.1381485E1,4.1362915E1,5.001857E1,1.0624299E1,3.0738617E1,2.8151352E1,2.1867218E1,2.8532164E0,7.771083E0,1.922218E1,1.15164385E1,2.2858196E1,5.2931547E0,9.532548E0,1.2334671E1,5.1944823E0,2.5766008E0,2.678895E0,8.8375435E0,1.501655E1,7.8416467E0,2.5336854E0,2.7594693E0,5.732263E0,3.8002846E0,8.528613E0,3.8060575E0,3.5304506E0,1.6640315E0,6.4700017E0,2.3675416E0,1.1639299E1,3.3772511E0,6.1511564E0,1.6904902E0,1.2980132E0,1.4614561E0,2.6467829E0,3.0854802E0,2.0610654E0,6.4675474E0],"tree_param":{"num_deleted":"0","num_feature":"5","num_nodes":"43","size_leaf_vector":"1"}},{"base_weights":[-1.8020952E-1,-5.2152928E-2,7.485591E-2,6.280359E-2,-5.2686807E-2],"categories":[],"categories_nodes":[],"categories_segments":[],"categories_sizes":[],"default_left":[0,0,0,0,0],"id":75,"left_children":[1,-1,3,-1,-1],"loss_changes":[9.099477E0,0E0,2.0447948E1,0E0,0E0],"parents":[2147483647,0,0,2,2],"right_children":[2,-1,4,-1,-1],"split_conditions":[4E0,-5.2152928E-2,5E0,6.280359E-2,-5.2686807E-2],"split_indices":[3,0,3,0,0],"split_type":[0,0,0,0,0],"sum_hessian":[1.0307254E2,4.3635857E1,5.9436684E1,3.0944708E1,2.8491978E1],"tree_param":{"num_deleted":"0","num_feature":"5","num_nodes":"5","size_leaf_vector":"1"}},{"base_weights":[-1.0007098E-1,-5.319758E-2,3.85154E-1,6.816066E-2,-5.058788E-2],"categories":[],"categories_nodes":[],"categories_segments":[],"categories_sizes":[],"default_left":[0,0,0,0,0],"id":76,"left_children":[1,-1,3,-1,-1],"loss_changes":[2.4215225E1,0E0,1.4749939E1,0E0,0E0],"parents":[2147483647,0,0,2,2],"right_children":[2,-1,4,-1,-1],"split_conditions":[5E0,-5.319758E-2,6E0,6.816066E-2,-5.058788E-2],"split_indices":[3,0,3,0,0],"split_type":[0,0,0,0,0],"sum_hessian":[1.13568954E2,6.0034843E1,5.3534115E1,4.0345825E1,1.3188289E1],"tree_param":{"num_deleted":"0","num_feature":"5","num_nodes":"5","size_leaf_vector":"1"}},{"base_weights":[2.1283405E-1,-4.748158E-2,2.4994923E-1,2.548179E-2,1.8247567E-1,-6.0387596E-2,2.8896675E-1,-1.7084798E-2,2.9993195E-2,3.4159433E-2,1.3330576E-1,-7.5018504E-3,9.9695055E-3,-9.95574E-3,2.399577E-2],"categories":[],"categories_nodes":[],"categories_segments":[],"categories_sizes":[],"default_left":[0,0,0,0,0,0,0,0,0,0,0,0,0,0,0],"id":77,"left_children":[1,-1,3,-1,5,7,9,-1,11,-1,13,-1,-1,-1,-1],"loss_changes":[4.3047385E0,0E0,4.839897E-3,0E0,3.805526E-1,5.6107275E-2,3.5834134E-2,0E0,3.4263294E-2,0E0,1.2694885E-1,0E0,0E0,0E0,0E0],"parents":[2147483647,0,0,2,2,4,4,5,5,6,6,8,8,10,10],"right_children":[2,-1,4,-1,6,8,10,-1,12,-1,14,-1,-1,-1,-1],"split_conditions":[1E0,-4.748158E-2,1E1,2.548179E-2,3E0,1E0,6E0,-1.7084798E-2,2E0,3.4159433E-2,1E0,-7.5018504E-3,9.9695055E-3,-9.95574E-3,2.399577E-2],"split_indices":[4,0,2,0,1,0,1,0,1,0,0,0,0,0,0],"split_type":[0,0,0,0,0,0,0,0,0,0,0,0,0,0,0],"sum_hessian":[1.6301605E2,7.744124E0,1.5527193E2,1.4223233E2,1.3039588E1,4.1067276E0,8.93286E0,1.4474229E0,2.6593049E0,5.7831516E0,3.149709E0,1.0304972E0,1.6288077E0,1.0103148E0,2.139394E0],"tree_param":{"num_deleted":"0","num_feature":"5","num_nodes":"15","size_leaf_vector":"1"}},{"base_weights":[-4.7479168E-2,6.253136E-2,-3.165465E-1,4.6848986E-1,-5.2866694E-2,5.556441E-2,3.058256E-1,-3.5038646E-2,5.405876E-2],"categories":[],"categories_nodes":[],"categories_segments":[],"categories_sizes":[],"default_left":[0,0,0,0,0,0,0,0,0],"id":78,"left_children":[1,-1,3,5,-1,-1,7,-1,-1],"loss_changes":[1.9828974E1,0E0,1.3257587E1,7.3200226E-2,0E0,0E0,1.4537706E0,0E0,0E0],"parents":[2147483647,0,0,2,2,3,3,6,6],"right_children":[2,-1,4,6,-1,-1,8,-1,-1],"split_conditions":[1E0,6.253136E-2,1E0,4E0,-5.2866694E-2,5.556441E-2,5E0,-3.5038646E-2,